#include "Activity_coefficient.hpp"
using namespace dl;

namespace Activity_coefficient
{
    const static __attribute__((aligned(16))) int16_t statefulpartitionedcall_sequential_1_conv2d_2_biasadd_filter_element[] = {
         19134, -13531, -22156,   3801, -13158,  11046,  -1960, -13572,  17274, -12191, -20383, -18235,  12086,  10804,    665, -14524,   9830,   4128,   5607,  -3558,  12992,   -156,   -713,  19671,   9434,   9224, -19998, -16656, -11826,   4286,  20333, -18120,  17684,  -5566,  13053,   3010,  19145,  -5416,   8045,   4093,  10955,  -9603, -14161,  -5026, -12904,  -7734, -11178,    408,  15436, -19061,  -5080,  13731,   -820, -21898, -18135,   4514,  16340,  -3789,  11979, -12033,   7565,  22940, -14273, -16135};

    const static Filter<int16_t> statefulpartitionedcall_sequential_1_conv2d_2_biasadd_filter(statefulpartitionedcall_sequential_1_conv2d_2_biasadd_filter_element, -16, {2, 2, 1, 16}, {1, 1});
    const Filter<int16_t> *get_statefulpartitionedcall_sequential_1_conv2d_2_biasadd_filter()
    {
    	return &statefulpartitionedcall_sequential_1_conv2d_2_biasadd_filter;
    }

    const static __attribute__((aligned(16))) int16_t statefulpartitionedcall_sequential_1_conv2d_2_biasadd_bias_element[] = {
           398,   -135,   -326,   -307,    -47,    454,    170,   -142,    350,    247,   -209,   -342,   -247,   -259,    -87,      8};

    const static Bias<int16_t> statefulpartitionedcall_sequential_1_conv2d_2_biasadd_bias(statefulpartitionedcall_sequential_1_conv2d_2_biasadd_bias_element, -13, {16,});
    const Bias<int16_t> *get_statefulpartitionedcall_sequential_1_conv2d_2_biasadd_bias()
    {
    	return &statefulpartitionedcall_sequential_1_conv2d_2_biasadd_bias;
    }

    const static Activation<int16_t> statefulpartitionedcall_sequential_1_conv2d_2_biasadd_activation(ReLU);
    const Activation<int16_t> *get_statefulpartitionedcall_sequential_1_conv2d_2_biasadd_activation()
    {
    	return &statefulpartitionedcall_sequential_1_conv2d_2_biasadd_activation;
    }

    const static __attribute__((aligned(16))) int16_t statefulpartitionedcall_sequential_1_conv2d_3_biasadd_filter_element[] = {
        -14297,  12621, -14253,  12206,  12365,  -7102,  -7998,   2686,   3800,  25505,  -8827, -18416, -11676,  -6689,  17616,  25502,  13969,  -6243,   9133,  -6055, -17930, -18580, -11887,  -6414,    -12, -14868,   -950,  -7494,  19712,  -5283,  -7206,    145,   7168, -19951,  16067,  26999,   1485, -14610,   7114,  12021,   4939,  18283, -17449,  -7177, -11546,  13213,  12968,  -7701,  17330,  27393,  19379, -18205,  16235,  -6942,  25742,  -3086,   8867,  16154, -17264,  24420,  13330,   1412,  12303,     78,   -222,  17658,  21375, -13714,  -5692,  10298, -11794, -22696,   3335, -16655,  10133,  14499,  -9019, -12697,   -889, -14813, -24035,  -5812,   6970,  -1749,   7666,   7844,   6855,  24321,  18672,  -4234,  -1802,  -1415,  -5123,  -2924,   8343,   4559, -14066, -19773, -21105,  -7668,  -4563,  13852,  26403,  -1013,  22186,  16284,  15157, -23851,  25140,  12912,  16685,  -6511, -20162,   7274,   3375, -10227, -19354,   4084, -14851,  26518,  11391,   6771,  -5870,  27731, -12289, -10663, -11768, -17900,   8210,  13004,   6370, -13460,  17928,  -6348,  11324,   2246,   6445,   1316,  -4738,   3174,  19005, -11616,  15527,  -3907, -10601,  -8188,  23292,  -7914,  23964, -16124,  13398,  14345,  19995,  -6298,   2892,  15785,  23726, -23731, -21571,  -1397,  12114,  -3488,   9285,  -4190,  21055, -20753,  18624,  -3492,  -4041, -14736,  19562,  26117,  22732,  13782,   4667, -24486,  24982,   5906,  13911,  16098,  -4115,  22341,  20688, -12680, -17817,  13979, -10200, -14117,   7226, -20458,  21532,   5246,  22636,  24815,  16570,  13104, -21761, -16234,   5397,   2654,  20913,  15306,    515, -14424, -21037, -19694, -16809,  24425,   6097,   1402, -18558,  21553,  -5896, -10089,  18527,  18144,  10262, -16461, -20860, -13186,  -4049, -20238,  19805,   -600,   5424,  18651,  15870,  23444,   9881,  13333,  -4522,  13854,  -9141,  12764,  10805,  -1362,  -1322,   9190,  25814,  23104,  22793,  18783,  10210,   7867,  12214, -16215,    153,  16385,  -4733,  -7711,   9374,  -6293,   7472,  16332, -13083,   3026, -12462,  24138, -11966,  -9953,  -3695,  -5491,  -2100, -12377,  12496, -18520,  -5126,  11678,   2078,  -6672, -10402,   1903, -10118,  13140, -14877,   2765,  14138, -16092,   5798,  22608,  -3633, -19155, -18036,  17026,  18285, -17159,  24893,   8755, -15260,  -3020,   4564,  24162,  23413,  -7203,  30320, -12808,  21587, -12960,  24170, -12991,   4669,  -1391,   6363,   5381,  18257,  15667,   3039,  10559,  -1316,   2801, -10555, -17657, -21690,  -7679, -15011,  -6822,  17078, -16855,   8646,  -5738,    240,  18426, -12480,  21312,  -3439,  26558, -12882,   8692, -11460, -10918,  17811, -20748,  14936,  -4191,  22053,  22792,   9669,   7135,  20997, -12518,  -8545,   1878,  15253,  22656,   -677,  -5681,  18734,   2518,  -6494,  -8728,   8820, -20528, -16586,  10567,  -9776,  16876,  23474,  17603,   6372,  -2999, -20434,  14853,   1785,  26007,   1915,   9577,  25055,  19706, -19681,   6390,   1769,   9352,   6246,  -9050,  -4274,  -6619, -10802, -18400,   4855,   -995,   5722, -19078, -15355,  11911,  16258,  -8416, -10056, -10675,   5038,  20967, -16680,  16082, -24015,   4548,  -3963,  14323,   5456,   2611,  -9430,  24188,   5542,   1511,  19278,  13440,  19125,   8518, -11976,  17405,  -5529, -22338, -20315, -21907,  14729,   5658,  16591,  24574, -13964,  -2632,  14129,  18914,  -9398, -13348,   -430,   5938,    102,  -5265,  11743,  18550, -10725,   2783,  16600, -23940,  15216,  12473,  -9557, -15876,  22320,  22592,  19983,   4926,  16140,  11708,  14503,   1975,   7962, -17341, -22572,  -1898,  17376,  12932,   5212, -12755,  21075,  18968,   -467,   7282,  -1976, -19160,  15501,   3407, -18328,  -7308, -21393,  24398,   2145, -15182,   5340,  11033,   4352,  14325,  17235,   2613,  -5189,   7119,    635,  11041,  20134,  17435,  25662,  -1263, -21879, -15528, -17724,  -3189,   6142,  11109,  23505, -21081,   7842,   1233, -17149, -11502,   8542, -15913,  27788,  12731,  -5895, -10196,  14074,   2357,  -7909,  12169,  17447,  -6097,  -9804,   1437,    299,    362,  18498,   6033,  -7406, -10437,
        -19835,    259,  -8285,   7876,   2570,  -5612,   2571, -14506,  14309, -15234,   2803,  -9794,  -7793, -17871,  10606,  14372, -13108,  14118,  15434, -13334, -11952,  -6086,   2759,  12831,   6483, -16215, -19271,  12171,   3829, -16543,  -3655,  19440,  -9418,  26951, -10526, -20286, -22314,   6925,  25217,  27871,   4771,  12967,   6572,  26678,  20104,  12576, -18215,  -8499,  20754, -15766,  14309,  15408, -18608,  25566,  21236, -11772,   3013, -13191,  -1195,  18334,  -7397,   4750,  21691,  24730,  -8753, -18705,   -149,  -2420,  -1916, -19287, -20121, -17377,   1716,   -937, -23069,  18249,  13857,  -9283, -26253,  -2523,  14672,   8070,  13992,  -5726,   1411,   5074, -22103, -16655, -16338,   1883,  27928, -19896, -11584,  24212,   4726,  -2324,  16751,  20237,  23922,   9987,    244,  -1195,  10244,  -7988, -15097,  13913,   4086, -16588,  19984,  13531, -17143,  -9124,   8471,  14688, -16172,  21642,  11302,  -6974, -11299,  -4660,  -5136,  21087,  10903,   2336,   6627,  -8187,   8111,  10967, -22981,  21093, -15327,  12981, -26860,   3921,  20811,  -3486,   6379,   5388,  18761,   4865,    409,  -3730,  16712,  16792,  13917,  -3169,  25178,  12210,  14569,  10804, -11905, -15926,   1760,  13406,  20873,  12311,  -7792, -15742,  23068,   -201,  22337,  10742,   1382,  10941, -14737,  23169, -13340,  14637,  15641,   3177,   2444,  28515, -22612,   9745, -18600,  19273, -11915,  -6838,  -7098,  13162,    309, -18541,  -3072,  -4745,   7860,  14338,  -4319,   7287,  28348,  10552, -15297,   -199,  10209,   4593, -10863,   2403,    505,  14933, -12866,  -4059, -20562,  -9408, -20935,  15428,  -1841, -13205, -12362,   6291,   1154, -17504,  16746,  21280,  15762,  13038,  16809,   3020,  14121,  -2012,  19352, -16876, -10801,   9851,   1849,  -8805,  -4956,  10483,  16070, -14533, -22844,  23948,   -786,  13901,   6753,   7767, -18812,  -8321,  -3445, -11227,    -77,  -8917,   4620,   7660, -15969,  11067,  -9667,  22735,   5703,  -5104,  20472, -14298,  15209, -19850, -13331,  14480,  16569,  11992,  24929,   6828,  -7971,  12004,   1056,  23705,   8797,  12559,  12215,  -9872,  -6884, -15512,  23539, -18604, -12438,   7188,   3646,   6447, -22226, -19095,  15527, -20455,   6824, -16537,   2903,  -2830,  10979,  13289,  18705,  14797,  26176,   1131,   -529,   2681,  -4028,  -1229,   2571, -10470,  -2756,   3879,   1623,   8804,   4604,   4778,  -8005,  13873,  16472, -14496, -10472,   -884,  -7850, -15348,  21039, -19598,   6986,   6146,  -9315,  -3789,  22496,  15291,  26733,  18340,    446,  13059,  -4640,  -3285,   4350,   3600, -11151,  15867,  -9313,  22541,  14859,  25296,   7967,   6762,   1769, -16757,   6776,   7174,  -9222, -10580,  -6967, -20026,  -8731,  -8672,  -9910,  29002,   9018,  15932,  24529, -16697, -19169,    -21, -11615,   9453,   -248,  -7589,  -3289,  -3496,   6281,   1720,  25112,  14992,   3529,  24528,  26055, -25266,   -234,   3475,  15197,   3872,  18560,  24444, -14201, -23069,    458,  -2146,  -8598, -20194,  17766, -13048,  -9991,  -9695, -16788,  24616,   3387,  -7145,  21626, -17724,   4135,    397,   9112,  -9057,  17902, -19371, -14122,  23186, -16563,  25352,   8525,   4522,  11736,   8855,  16578, -23790,   8629, -17417,  20024,   7909,  -1082,   7339,  -8924,  -2635,  25482, -15205,  13378,   4231, -10518,  -6139,  -2149, -21397,  22412,  11649,   8759,  -4109,  26453,   -379,  -5018,   3496,   6365,   3933,   9283, -16365,   7275,   7817,  22202,    115, -18528, -14886, -15836,   3399,  11516,   9261,     26, -10633,  10265, -11366, -12169,  -8188,  -1438, -13362,  20455, -16928,     -9,  17287, -14828,  17073,   1149,   9692, -23374, -17849, -19724, -21633,  -6196, -14401, -17563, -16095,   5558,  -5782,   2672, -12964,  20925,  20423, -10431,  -9646,  20908, -21356,   8777,  -4750,  24186,   6016, -19822,  16977,  11457,   6306,  30473,   -618,  -5405,  19486,   -643,  14289,  -4288,  24825,  29604, -23386,  13797,   4751,  15656,   3259,   9813, -14759,   7127,  12133,   2089, -13204,  20603,  -7249,  23176, -22337,   6499, -15479, -18184,   6121,   9846,  22819,
          1845,  -6589, -21115, -17678, -11656, -15887,  13052,  -5710, -11236,   6557,   5040,  19370,   8911, -20297, -21231,  -6753, -20552,   3543,  17172,  -2447, -15262, -10354,  -3924, -17007,  -1058,  11633, -16964,  19352,  25152,   1629,  -1786,  -8036,  19088,   1743,  16187,  -5976,  -8738,  26077,  -6937,  15394,   4115,   9800,  19318, -12351,   3467,  -8823, -13546, -18226, -16914, -16952,  18920, -22345,  27639,   3916,  15289,   4626,  11167,  -2357,  24809,   3415, -18654,  20465, -20215,  11615,  21899,  -7914,  20846,  -2720, -20640,    338,  15403,  18057, -20383,  26180,  13500,  10001,  18812,  -9036, -11425,   9284, -13846,  24764, -15399,   3918, -10432, -18239, -20915, -19150,  14573,   3064, -11351, -17283,  17674, -12331,  15684,  21379, -17454,  20758,  12321,   3850,  -7810,  20671,  21236,  18196,  15446,  18374,  21834,  15876,  21656,  -4452, -17332, -19623, -13841,   7951,  -6508,   4284, -16434,  23545,  16637, -10385, -17142,  -6271, -13484,  25715,  17094, -20275, -18062,  -5612,   9427,  -1363, -17552,  -8056, -10602,  18579,  29135,  20873, -22135,   6928,  19803,  24243, -13651, -21043, -13345,  28352,  -4653,  12192,  20468,  -4528,   3535,  14712,   4174,  12410, -17533,   -350,  26915,  10039, -20233, -18045,   3703,  -1957,  24965,   4394,   2630,  10856,    568,  17587, -27486,  -6198, -12034, -23952,  18060, -17628, -11179,  -4455,   5079,   2319,  13096,  -7324, -10473, -20608,  15909, -23274,  -6360,  16338,  -6561, -16854, -10983,  27726, -17859,  -9577,   9882,  21893,  10518, -17677, -11203,  12232,   8273,   3701,  -6305, -14352, -19250,   4720,  20622, -14838,  -1248,  16946,  -5055, -10005,  -2365,   9339, -18695,  -1317,  27611,  17616, -15805,   4409,  -5448,   6978,  21556,  -4240,  -3255, -19753, -20261,  -8462,  -5282,  25896,  -5308,     47,   6110,   1874, -15530,  11387,  -6952,  10564,   6364,  16628,   8245, -21737,  -5224,  25900,  -6496,  25741,   6719,  14535,  10098,   5845,   4860,   4696,  24774,  -9363,  11522,  13180,  23179,  15759,  -6969, -14800,  -8190,   6796, -24074,   2151,   1292,   1868,  12400,  11268,   4560,  -3780,  -7108,  22169,   9877,  -7778,  -9423,  12721,   5467,  22076,   7236,   7853,  15034,   2422,  13816, -18899,   3547,  23007,  25346,  -8815,   -807, -17937, -18290, -12951,   3471,   3679,  14467, -13425,  30404,  -3720, -27282,  27695, -18345,  17339,   5712,  -1957,  20516, -15937,  22835, -11617,  -8324,   3425,  18870,  11068,  -6636,  -3281,  13264,  -3593,  -3620,  -7287,  22483,  11042,  15879,   -870, -14528,   8060,   6694, -20722,  14824,  14336, -12448,  19014,  -4739,  21140,  19209,  -4079,  -6980,  10355, -12850, -11339,   2401,  -5727, -16635,  -1541,  -4347, -18395,    674,  13014, -13686,  17781,   6813,  15995,  25030, -10615, -10610,   3098, -26184,  -7531,  -2664,   6435, -13169, -18905,   9291, -14859,   1718,   7961,   9975, -13058,   6107,  -8181,  26599,  22735, -17101,  11733,   9439, -15296,  21463,  20955,  -9490, -18531, -15197, -10711,   2452, -11050,  -4273,  -1345,  14010, -11243,  13141,    581,  -7454, -21433, -12883,   2129,  18333, -12494,   2785,   9112,    787,   5355,   4963,    945,  18182,  11379, -13841,   9615, -17429,   6612,  -3652,  22415, -11361, -14611, -16134,  15934,  13004,  16122,  19116,  24218,  15903,  26655,  21269, -13079,  -2426,  15449,   3326, -18324,  26658,  18097,    470,  18559,  20927,   1681,   5060, -20635,  13921, -18306,  -2724,  18606,  22577, -16225,  22938,  -4817, -20764, -21534,  16652, -21913,  -4693,  24517,  20186, -13702,  11799,  12056,     -8,   1699, -19224,  16155, -19669, -18809,  12914,  13858,  14155, -14073,  24506,   3296, -13940,  16054, -17338,  -2750,  -2050,  13052,  15368,  12556, -12731,   1886,  10070, -18381,  -8214,  20115,  28286,  25609,  17632,  15091,  15746,  26340,  15359,  -3148,  -5579,   5959,  10309,   4921,  -1990,  19153, -21029,  10032,   3380,  20219,  -8200,   4362, -14954,   -793,  13495, -17771,  20716,  25022, -15919,  26131,  -1537,  -5120,   8808,   5509,  21151,  29659,   2929, -13380,  20592,  14157,  -6759,   1570,
         16562,  -5103, -23887,  17703,  -9191, -24945,  25734,  -6329,  -3504,   3467,  -3305,  19771,  27001,  19238,   4027,   2281,  -6364,  -4516,  17777,  17991,   9995,  19169,  13858,  13091,  -4551, -16109,  16658, -20614, -18899,  24135, -24195,  19379,  -3023,  13134,   1422,  14682,  24606, -14099,   3849,  13455,  13653,  21816, -15955, -12437,  10660, -13304,  -8708,    673,  15035,  -4299,   9717, -11246,  15109, -14559,  10892,   9433,   9257,  18576,  -4809,   9921,  -7098,  31683,  18781,   5315,  -3980,  16021,  10513,  22056,   4752,  -9166,  26871,  27700, -13036,   4399,  12856, -16434,  17358,  30799, -18006,   5637,  19337,    489,   7155,  17174,   4165,  13106,  21580,  16948,  21698, -17171,  14905, -18292,   8978,  16593, -14899,   2527,  30268, -16486,  -4813,  10464,  -3295,   2420,  21864,  17061,   5064,  22279,    149,   5442,  11463,   1833, -22481,  -6697,   6143,   5496,  12336,  -8193, -11202, -16519, -20896, -26100,  13551,  14074,  18011,  -7286, -19860,  22695,  13416, -10245,  15876,   2585,  16535, -12068, -18367, -14357, -16421,   2631,  22355, -10487,   6018,  -7302,  -8330,  20216,   9120,   9060,  20381,  10744,   9265,  -9088,   9572,   -542,  15873, -20706, -13931,   3070,  -1617,  11400, -10676,  -6321, -21231,  -3074,  31356,  -2610,  18500,    824,  22358,  17428, -14950, -10337,  -5642, -20558,  10647, -17835, -22250, -18959,  -5570,   7346,   7814,  16104,  19479,  22025,   8940, -12082,   1697,   -384,   8394,  13248,  20863,  20662,  28061, -14966, -22406,  15607, -17228,  -2128,  -3856,   6684,  21060,  -3960,  25663,  14047, -17928,  -4899,  22255,  -1137,   3505,  16077,  13493,  11666,  17864, -12431,  12131,   2815,  -2035,  -1062,  13056,   8840,  14178,   1263,   -340,   1709,   9866,  17250,  14001, -21044,  -4516, -23108, -21944, -15821,  21955, -10325, -14380,  18719, -15075, -12581, -13726,   1109,  14199,  23118,  13732, -11502,  -8489,  -1643, -15966,   2775, -14926,  22926,  15747, -11009,  21817,  13026, -15784,  10474,  10086,  27935, -17518, -22479, -13527,  23544, -11229,  14367,  -3115, -18499,  26677,  25839,   5333,  10866,  14032,  -5836, -11176,    913,  24849, -10433,  15241, -10798,  29328,   7310,  12366,  10811,  19129, -25508,   8621,  24474,  29182, -15808, -17297,  25808, -20912,  -5766,  20902, -13861,  22381,  21759,  24025,  14901, -19652, -19387,   7430,  12192,   8927,  16245,   7246, -10577,   6847,  22787,  21061,    142, -24889,  -3149,  -2485, -15663,  -2354,  -3727,  -1181,  -7564,  -5934,   4666,  23679,  27569,  11019, -21945,  -1705,  20461, -10362,   9728,  11056,  -9780,  23612,  24690, -18814,  16964, -11627, -10888,  -1297,  28662,  -5279, -26247,  13095, -10677,   5345,   5993,  10249, -13786, -15424, -22884, -10283, -18231,    716, -17154,  12624,  -7085,   2279,  -8840,  15361, -19223, -12385,  -7635,  10020,   8563,  24166,  21922,   6826, -15840,  -2546,  12164, -16383,  -5212,  16273,  -8565,   9417,   9698,   9554,   4000, -23724,  -5981,   3316,   4176,    139,  -7354,  12563,   5679,  -8690, -14882,    511,  19353, -17999,  22405,  -3399,  11310,   5068, -21594, -17183,  -1496,   3834,  -9245,  14841,  15033,  19999, -13864,   2915,   2624,  -4422,  16684,  20435,   8603,  -8512,  27853, -10262, -13684,   7166,   4468,  23591,   -281,  -7459,  25436, -15657, -18665,  23008,  10106, -10718,   -575,   8199,  15448,  19236, -11572,  -1450,  25346, -16341, -12594,   2551,   2660,   9630,  23948, -10059,  12177, -11527,  13920,  -1131, -22044, -12468,  -5519,  -1063, -23565,  17391, -17214,     32,  10293, -17036, -21478,   4939, -18086, -10636,   7935,  17451,    191,  27478,  19045,   3485,  19730,  -9090,  -8141,   4917,  24683,  11328, -16621,  11760,  -7052,  17784,  17626,  10843,   5308,  22629,  -4712,  11770,   6842,  15936,   -166, -13023,  23342,  23182, -21665,  -8089,  -1949, -16492, -21794,   8258,  14748,  -3476, -17039,  29039,  17825,   2475,   6679,   9977,  24067,  20645, -23831, -18380,   1529,  21275,  -7900,  -8813, -11192, -20663,  18706,  24313, -21652, -11296,  -9933, -17240,    329,  -7302,  19499};

    const static Filter<int16_t> statefulpartitionedcall_sequential_1_conv2d_3_biasadd_filter(statefulpartitionedcall_sequential_1_conv2d_3_biasadd_filter_element, -17, {2, 2, 16, 32}, {1, 1});
    const Filter<int16_t> *get_statefulpartitionedcall_sequential_1_conv2d_3_biasadd_filter()
    {
    	return &statefulpartitionedcall_sequential_1_conv2d_3_biasadd_filter;
    }

    const static __attribute__((aligned(16))) int16_t statefulpartitionedcall_sequential_1_conv2d_3_biasadd_bias_element[] = {
          -139,    182,    -18,   -136,   -498,    604,   -249,    -93,   -314,    -87,   -222,    708,   -120,   -316,   -225,      5,    -90,   -512,   -587,     11,   -121,    -68,    615,   -252,   -171,    186,    -83,    -15,   -163,    -53,     74,    585};

    const static Bias<int16_t> statefulpartitionedcall_sequential_1_conv2d_3_biasadd_bias(statefulpartitionedcall_sequential_1_conv2d_3_biasadd_bias_element, -13, {32,});
    const Bias<int16_t> *get_statefulpartitionedcall_sequential_1_conv2d_3_biasadd_bias()
    {
    	return &statefulpartitionedcall_sequential_1_conv2d_3_biasadd_bias;
    }

    const static Activation<int16_t> statefulpartitionedcall_sequential_1_conv2d_3_biasadd_activation(ReLU);
    const Activation<int16_t> *get_statefulpartitionedcall_sequential_1_conv2d_3_biasadd_activation()
    {
    	return &statefulpartitionedcall_sequential_1_conv2d_3_biasadd_activation;
    }

    const static __attribute__((aligned(16))) int16_t fused_gemm_0_filter_element[] = {
         -1336,   8980,   5064,   8684,  -6407,   -405, -10372,   1666,   2011,   1810,   6756,   7346,  -4706,  10061,  11930, -10466,  -6533, -10113,  -1163,  -6446,  -5589,   7603,  -5795,  -1370,    -58, -12644,  -3996, -14516,   3809,   -522,   4930,   6876,   5223,   3653,  -6104,   7514,   9611,   8859,   5646,  -3073, -10914,  12029,   2793,  -7106,   1352, -14215,   2945,  -1154,  -2052,   2216,   -296, -15468,  -4599,  -2010,  10287,   -874,  12136,  -2479,  -3449,   -289,   9258, -12141,  -2958,    266, -13057,  -3368,  -1076,    160,   3329,  -7407, -10891,   5905,  -3851,   3621,    508,  -9999,   3886,   5489,    -66,   3472,  -9270,   1594,   7279,  -2479,   2978,  13014,  -9979,   6547,  -7102,  -8319,  -2812,   7012,    663,   1412,   7473,  -4783,   2496,   7530,  -1195,  -2888, -13230,  -4779,  -1737, -10164, -11403,   -771,   6820,   7785,   4539,  12004,  -9632,  -2323,   8817,   3378,  10236,  -4063,  -8984,  -3580,  -3313,   7371,   3007,   4018,  12833,   8713,  10696,  -4257,    497,   1716,   4590,   7464,   6323, -16640,  -5300,  17206,  -9842,  -6000, -10196,  11723,   4811, -10585,   3336,   4715, -12399,  -5676,  -2423,  -3764,   7458,   -501,   5045,  -8977,    422,  10069,  -7636,   5050, -10230,  16608,  -3736, -11860,   1406,  12152,  12280, -11935,  -7730, -13328,   8077,  12384,   6619,   8611, -11446,  -9073,  -6422, -14739,  11652,  -6679, -11832,   1017,  -8413,  -5937,   8674,  -4647,   2967,   8057,   3028, -15537,  11946,   2120,  -3501,  -5473,  -6939, -12898,   2223,   2316,  -7720,   3432,  -2757,  -6273,  -3012,   8969,   2785,    567,   6568,   6094, -12414,   1269,    750,  -5614, -10267,   1965,  -4696,   8032,  -7559,  10824,  -9125,   4043,   6677,  -7361, -12756,   1273,  14799,   8524,  -1747,   6701,   1123,  -5092,   2138,   5195,   2403,  -2317,   1685,   6460,   3808,  -6598,   3069,  15210,   5149,   3673, -11543, -11155,    520,  -2038,   1507, -11342,  11958,  -5705,  10530,   7398,  -6036,  -3305,  -1640,   8348, -13436, -13575,  -6649,  -8047,  -3884,   7631,   3069, -11357,   1902,   2743,   3030,  -4130,  -8218,  -7325,  -9396,   6715,   1707, -12186,  -5433,  -8029,   6596,   1413,   1049,  -9146,  15690,  -4773,   -687,  -8471,   3211,  -1240,  11756, -11562,  11713,  -1722, -13213,   9889,  -6077,  11426,  -2428,  11103,   9880,   2582,  -1827, -10608,  -9909,  -1513, -17827,   8855,  -6880,  -9199,   7432,   1165,   1072,   1803,   4422,  -8643,  -1910,   2662,  -7206,   -616,  11006,  14734,   8226,  11363,   3725,  -4919, -12755,   4800, -13883,   7016,   7082,  11408,  -7107,  -9750, -11540,  -7518,     39, -10068,  -7102,  -7391,   9318,  -8550,  -9096,   5103,   4645, -11836,   3306,  -8568,  17671,  -7453,  -9788, -12475,  -1002,   4409,   9497,   6967,   -904,   4269, -12931, -13438,  -7793,   3758,  -3223,  10655,  -4155,   3150,   4010,  -9649,  -7968,  -6906,   6156,  -6430,  11309,  -2989,   4317,    991, -11666, -11773,   3388,  10325,   3531,  -9162,  -6472,   5557,    158,   9415,  -1585, -10472,  -9302, -12829,   1536,  15127,  10022,  12803,  -2752,   9364,  10310,   1084, -10460,   1152,  -9221,  15640,    566,   7041,   -449,   1116,    519,   2300,   3903,  10247,  -6725,  -4361, -13475,   1573,   7728,   2334,   2586,  -5570,  -1660,  -8967,  14420,  -6209,   1467, -14754,   9590, -14265,   6003, -12188,   6285, -15252,   8867,  -7778, -13461,  -8632,   6375,  -1443,  13046, -20929,   3816,  10467,   9013,  11609,   2304, -11232,    838,   2695,   5176,    569,   8518,     30,  -2830,   2492,  -7869,  -5875,  10535,  -4462, -11536,  -2613,  -3213,   -469,   4596,     76,  -2082,   9978, -10902,  -1925,  10727,  14195,   1891,  -8289,   5147,   1208,  -2295, -13802,   7868,   5793, -11516,  14358, -12460,  -4508, -10562,  -6806,  -7180, -11042,  -8861, -10324,   8751, -10063,   6091,  -4549, -11280,  -7501,   5833,    581,   6762,  -1638,  -6514,   8092,   2277,   3055,  -1655,   3827,   2434, -15838,   1272,   3971,  -2640, -14708,   6134,  -8609, -10994,  11043,   8586,   8432,  -9921,  -8712,   6796,  -6518,    715,  -2613,   7872,   3847,
          3965,  -1978,   2003,   2225,   3945,  -6830,  -5535,   6573,  -6435, -11565,    666,  -8950,    648,   5726,   -675,   2261,   2288,  13805,  -5709,   8897,  -8834,   3198, -13181,  -9726,   5036,  -4402,   2100,   5094,  -3314,  -4814,  -5301,  -6116,  -1845,  -6055,   7777,  10937,  10150,    120,  -6923,  -9531,     46,   3782,  -2795,   7906,   6442,  13180,   9713,   2198,   8661,  -1108,  11996,  -5679,  -7027,   9985, -13860,  15945,  -7987,  -3009,   1012,   9035,  -4311, -12576,  -7378,   -210,  -3951, -13598,   3547, -10123,   -858,   1510,  -3642,  -4857,  18311, -12866,  20314,  -2598,  10859,  -5613,   8937,   4521,  13539, -16341,  -4264,  -7402,  -1493,  -6159,   4368,   9227, -19450,   9653,  -3494,  -3053,  10558,  -2647,   7263, -11293,  -3683,  11281,  -8839,   9235,   4939, -16125, -14272, -12612,    168,   1223,   7524, -15153, -14391,   8436,   9268,   4384,   9694,  -9215,  -1955,  -9339, -12652,  -3380,  -3104,  12862,  11414,  -2981,  15634,  -6070,  10348,   7059,  -2203,   4818,   6698,  11466,  15114,  -9763,   3135,  -5349, -11607,  -7743,  -9138,   9133,   1708,  14117,   5426,   6085,  -2863,  13767,  12533,   7028,   9500,  -5158, -10468,  -4127,   -453,  -8185, -11623,  16733,  10123,  14102, -11786, -12077, -10635,   8608,   8490,   1698,  20716, -18341,    912,  -9403, -12468,  -4331, -10005,   4669,   6432, -12193, -11145,  -5637,  -2621,  17688,   4664,  -6796, -16663,   5656,   8366,    595,  -1555,   1268, -11055,   7041,  10862,  -7851,   3048,   5466,   6215,  10891,   9648,  -3718,  15327, -14954,  -1655,   4111,   7578,  -1075,  -9059, -10971, -10565,  11708,   3649,  -8952, -10742,   6053,   1732,   7142,  -3959,   4843,  -9202,   1219,  10261,  -7880,  -2367, -11879,   4112,   4693,  -3957,  15502,  -7174,   7411,   6767,   1357,   4420,   3981,   5094,   6510, -10988,   7604,   5494,  -9103,   -710,   9770,  -8676, -15924,  -3411,  -1506,  -9804,  -1534, -13008,  -4890,  -6160,  -7478,   7935, -11920,   5783,   1477, -12315,  -6839,  -9140, -14622,  -8965, -11237,   1283,   4508,  -2236,  -8944,   5208,   4942,  -5883,   8572,  11709,   5312,  -8025,   6909, -12457,   2626,  -4993,  -6258,  -6824,   4403,  -7065,    -82,   -417, -10170,   3790,  10262,   3657,  -6566,  13163,   2815,   7289,  14873,  -2622,   6129,  -4924,   8029,  -5845,   2066,  -7668,  -9796,   5794,    681,  -2403, -11927,    664,    281,   -830,  -7179,  -5518, -14199,   5274,  -4728,  18668, -13118,  10665,   8513,     14,   5463, -11335,   2722,  10468,  -7637,  -7574,  -6003,  -4074,   2786,  -2262,  -4466,  -7807,   9291, -12139,   5507,   4048,  -6630,   3226, -11079,   4806,  -3735,   7484,   3101,   8569,   5015,  -6112,  -5488,   5676, -10778,   4087,  -8726,   5452,  -2482,  -3850,  -4658,  -6474,  10158,   4020, -10016,   8967, -14325,  -1500,   3217,   -428,   1911,  -9259,  -5793,  -8696,   3825,  -4853,  -1746,   3480,  -8177,   1664,  -8707,  12213,    364,  -2882,   7852,   6431,  -8618,  -7078,   3595,  -4300,  -3747,  -6379, -15266,   1310,   1837,   2170,  11199, -10619,  -7885,  -6865,   4240,  17221,    481,   8147,   9990,  -2982,  13234, -11991,   1128,     66,     86,  -7778,  -4612,  -7534, -10375,  13040,   1945,   6399,  10912,   7546,   6094,    697,   6935, -11439,   3732,  -3985,  -4219, -10026,  -8912,   3430,   3872,  18466,   5962,   5149, -16911,   9270,   9914,   7947,   4570,  -4950,   2914,  16796,   4101,   7859,  10493,   9013,   9787,  10576,   3549, -13948,  -1093,   2646,   2899,  -5404, -20515,  -2316,    433,    206,  -8285,  -9251,   1916,  -6741,  -3174,  14825, -16414,   7694, -12608,  -5002,   6366,   4200,  -3416,  -8546,  -6220,   4301,  16685,   1434,  -5722,  -3994,  -5268,  -6719,  -2026,   -444,   2020, -11313,   3394,  -7904,  -4697,  -4433, -16780,  -9605,  -4963,  -9340,   1833,  -2572,    766,  12636,  -1922,   6935,   9163,  -9336,  -1568,   -699,   7273,  -5887,   1460,  -4339,  13874,   2629,  -9586,  -9336, -15201,   5347,    220, -10056,  -9002,  -5419,   -463,  10290,   2962,  -8407,    121,   4758,  -1489,   -854,   5012,  -8888,  -6908,
         11517,  -6963, -14735,    146,  -4678,   4948,   3601,   6138,    547,   -167, -11234,   2639,  -7079, -12399, -11002, -12950,   8451,  -6076,   1410,   4066,   8410,    921,   6473,  -9605,   -688,  -8795,  -7717,   2378,   2109,   7915, -13899,   3934,  -8232,  10398,  11028,   9957,   2112,   6293,  10368,   3759,  -3921,  -3425,     15,  -2898, -12347,  -1189, -12376, -12184,   4383,  -2970,   4659, -14950,   8413,   3018, -12709,   1723,   -687,   9449,  -4284,   -598,  -9895,   -879,   2241,  12202,   6205,  -4415,  10391,  -3791,   5938,  -3391,  -9759,   5876,   -696,   1757,  -3967,   9743,   7931, -11241,  -3602,  -6823,  11021,   3867,  14245, -17717,   3932,  12609,   6978,   1162,   4258,   7912,    677,   -384, -10520,  -7151,   4923,  -6101, -14095,  10139,  12779,  14543,   4299, -16491, -11254,  -9783,   7369,  -7443,  -4059, -14835,  -7181,  11801,   5623,  -5953,  12446,  -1952,  10622, -11973,   7762,   3407,   -348,   -539,  17028,  -2844,  12519, -10505,   5343,   8557,  -8546,    644,  -6320, -12859,   2437, -11496,   9479,  10822,  -7330,  -6624,   -262,   4730,   9412,      7,    833,  -6162,   -175,   6444,  -9096,    434,   -473,   1466,  -5139,   -540, -12196,  10529,     56,  15782,  -2645,  13815, -14077,   3063,  10525,  -2641,    262, -10780,   4574,  -2460, -13909,   5799,  -7822,    847,  14442,   3404,   4413,   2823,   -557,   5644,   3758,  -3778,   6304, -15500, -12659,   3946,  -4819,  -3381,  -5063,   3328,  -2394, -14497,     81,   2016,  -5163,  -6112,  -9142,   8740,   7076, -15340,  17773,   5694,    276,   4512,   6650,   2028,  12612,  -8647,  -5371,  15033,   -299,   5185,    766,   1240,   8981,  -4553,   5528,   3047,   1870,  -6557,   1444,  -3145,  10666, -11813,  10650,  -7642, -11777,  -9193,  -7296, -11043,  12170,  -9207,  16511,   7374,   8246,   1045,   -985,  -1655,  -2068,  15777,   -840,  10354,  -1120, -17185,   6845,  -7189,  -6294, -11576,  12802,   7426,  -4756,  -3246,   5399,   9441,  -9110,  -9939,  -1736,  -1384,   7016,   6821,   3821,   6618, -11177, -15699,   7366,    736,   -552,  -8981,  -9133, -10024,    730,   1714,  15240,   2738,  11081,   -679,  -9883,   -233,   1413,  -7934, -11781,  -8650,   8670, -14524, -14455,   7126,  -1008,  -4676,  10558,  -8474,  -6341,   5013,    992,   9745,  11320,    438, -12789,  10134, -14295,  -9873,  -9272,   7165,  -4960, -12187,  -2718,   6713, -11687,  10728,  -8356,    275,  11493,   5196,  -3900,   3629,   1851,   8482,  -3109,   4708, -10330,  13376,   8353,  -5975,  -4936,  -4208,  -1846,   5225,  -8222,  -6502,  -2446,   8431,  -7788,  -2418,   7053, -10608,   5492,   6156,  11822, -12052,  -2406,  -6161,   3561,   9116,   2696,  -3274,  10310, -11085,   1657,   4031,  10644,   1780,  -5745,  -9171,   5375,   6938,   4102,   1737,  10672,   3085,  13248,  -5740,  -2448,  -4755,   2101, -15426,  -5899, -11688,   3918, -12686,    997,   9673,   5872,   6786,    315,    839,   4736, -15424,  19587,  -3262, -12837,   8868,  10752,   2871,  11092,  -7860,   5968,    884, -11468,   9742,  -1763,    757,  16797,  -5574,   -825,    657,   8958,   8258,  11245,   3356,   2213,  13263, -10389,  12764,   2220,   5775,   3904,  -9464,   8163,   4714,  12387,   5876, -12075,  -1118,   9813,   9628,   7297,  13463,     -5,   3268,   8160, -15979,  -6755,  11694,  11436,  -4484,   8867, -17402,   7711,   3807,   5519,   6832,  -1806, -10869,   2223,  13968,  -1563,   3979, -10462,   6400,  -4117, -11580,  -4332,  -2604,   8325,  -1034,   4716, -13574, -11119,  -7744,  13472, -13061, -11295, -12308, -10838,   6736,   5420,  -3182,  -5065, -11357,    869,   4571,   1792,  -1809,  -9150,     75,  -8775,  -4456,   6444, -10092, -10880, -10949,  -4370,  -4255,  14128,   2806, -11766,  -8618,   2242,   6716,  -4089,  -6698,   6248,  -1213,   5832,  -4952,   9921,   9820,  17590, -14978,  13963,    902,  10712,  10277,  -2096,  13891, -10812,  -1128,   -194,    670, -11299, -19382, -10023,  -6102,  -5228,  -7231,  -2986,   -206, -11689,   7109,  -6469, -11553,   8765, -12888, -12791,  -5611,    277,   4333,  -9262,  -5122,
         -5501,   1317, -11030, -11522, -12148, -10983,  -9318,   4973,   -579,  -2828,   6135,    987,   1944,   7029,   7957, -10591,  11041,  10422,   9020,   9740, -13503,  -9124,  -4563,    543,    -81,  -8063,   2688,  -1271,  -9849,   6355,   3350,  14610,    693, -10450,    969,  11746,   1643,  10430, -13048,  -1048,  -4177, -14132,  -8592,   7686, -13218,   9229,  -7040,   8755,   1344,   9769,   5702, -12431,  11297,  15226,  -9775,  -3262,   8721,    -83,  13357,   -707,   1573,   4022,  10911, -12041,   1469,  11049,   4629,  12122, -10782,  -9112,   5000,   6150,   1192,   1015,   3704, -12773,  14585, -10471,  -8404,  12880,  14414, -12586, -10937,  -1494,   -415,   1242,   1285,   5051, -14223, -12717,   2814, -12254,   4042, -11684,  12451, -12153,  -5007,   7578,  -8245,  -7790,  -2366,  -3596,   9757,   7985, -12221,   7149,  -9900,   6521,   6133,  15298, -12646,   1215,   6513,   7325,  -5591, -12823,   7923,   2941,    624,  -1668,  -7019, -14029,   1869,   1047,   6080,   5290,   6978,   5239,  12683,  -2153,  -6050,  -3203,  13604,  -5885,   9891,  13769,  -5460,  12344,  -8350,  10287,  10141, -13265,   6098,   6250,  13165,   6464,   9724,  10634,  -1396, -15475, -13209,  -6238,   3778,   4058,    912,   6461,  -3404,  -3102, -12715,   8276,  13238, -12586,  -8249, -14814,    283,   4872,   1333,   1069,   9282, -14030,   2242, -14067,  13725,  -3231, -10078,   -373,   2636,  -7118, -15717,   5458,    278,   9303,   1826,   5041,   -392, -10856,   8918, -12410, -10016,   8080,   4604,  -9618,  12040,   3576,  17771,   3354,   4358,  12321,   6431,  -3867,  11237,   9572,   3637,   3208,  10709,   -562,  -6706,  -1019,  -8863,   3596,  13431,  11297,   2672,   4019,   6552, -12304,  -5804,  -4544, -11296,  -1648,   8773,  -2516,   1343,  -1130,  16157,   5566,  -3467,   7368,   -409,    -29,   2997,  -4766,  -5142,   4698,  10815,   4759, -10510, -14873,  -5035,   4990,  13150,   9370,   2124, -15089,    760,   2483,   -181,  -6078,   -976,   2034,  -2121, -12531,  -6872,   8702,  -4572,  -9957,  -7555,  -5449, -12473, -13811,  -5776,  -5026,  -2788, -11195,  -2814,  -7066, -13649,  -2645,   6096,   8040, -11332,  -2806,  -1519,  -1621,   -528,    383, -13000,    360,   -131,  -3275,  16124,   2389,  -8591, -11988,   1331,  -2229,   8834,  11783, -11194,  10434,  -3763,  -3865,   -161,  11987,   7036,   6719,  -5860,   2676,  -8007,  -8453,   1558,   4411,   9324,  -5321,   2260,  -6038,   2179,  -7364, -11235,  13529,   2320,  10076,  -8353,  -5997,  -7007,  18304,  -2763,   2432,   4628,  11397,   8406,   8287,  13902,    453,  -4307,  -2736,   8681,     16,  11499, -11702,  -1410,  13338,   3757,  16846,  -5183,  -7383,   6923,  -4698,  15139, -19530,  13739,   7076, -11109,  14766, -10512,  11112,   4123,  -9320,  -4775,    238,  -4626,  -6595,   2668,   9397, -10139,   9173,   9846,  -9615,   2459,  -9607,   7594,    773,  -7562,   3909,   6897,   6338,  -6506,  -6811,    104, -14555,  11490, -11184,  -5933,   8817, -12319,   6887,   6018,    485,   -415,   4411,   1163,    842,  -5386,   5614, -13905, -11954,  14340, -15150,  -3023, -14399,   9009,   6407,  10434,  13697,  -7632,  10178,  -8744,  -6853,    708,  -9210, -12703,  13998,   6470,  11757, -11061,   3775,  -5566, -10029,   8041,  -3845,   -390,   8917,   4236, -21143,    945,  -6355,  18576,    959,   1676, -16620,   3444,  -5605, -10972,  -3885,  16473, -21958,  13290, -14029,   9755,   1894, -11026,  -4481,  11724,  -2784, -11505,  -8226,   5862,   -956,   3169, -16574,   1000,   4533,  -2256,   5503,   7029,  -4428,  -6195,   5552,  15132,  -8513,   6434, -13345,  -2237,  17954, -10898,   8779,   -685,  11352, -15019,  -6887,  -9768,  -6603,   8963,   3048,   1461,  14047,  12479,   9304, -13811,   4909,   6362,   8541,  -2348,    828,   2592,    806,   9419,  -3662, -11416,    436,  -1299, -17181,   9577,   5703,   2003,  -5915,   4993,  -7039,   6882,  14748,   -199,  -2378,   5790,  -3436,  -2385,   1973,  11678,  -7920,  -8141,  -7989,   -994,   3175,   -946,   -951,  -7233,   2647,  -8651,  -5111,  -7437,  -5370,  10571,  -3195,
         -7601,  -8068,   5747,    599,   9481,   4353,  10904,  -5706,  -1264,  -2023,   8257,   -221,   -971,  -7592, -11369,   -488,  -8583,   -107,   9186,   3457,  10452, -11178,   5220,   9242,  18101,   2883,  -7702, -15048,  -5930,  -8446,  -6112,  -1673,  11897,  -9644,   6822,  11542,  -5620,  -4847,   7076,  -1501,   -989,  -3099,   2607,   7353,   8638,  -4394,   6457,   9058,  18426,   2807,   2052,   6285,   -359,  17671,   3686,  -5458, -13480,   2497,  -4142,   8638,   9895, -14887,  -1948,   9850,   7736,  16145,   9053,   8611,  -6812, -13337,  -2657,   6591, -10523,  -2377,  10556, -15262,  12472,  -4671, -12660, -10944,  -1886,   1621,   1359,  -4215,  10815,  -4346,  -1421,   4811,   9169, -14853,  -1257,  -9072,   3552, -13275,   5925, -11779,  -3975,   7150,  -4278,  -7295,   1032,  -7606,  -8203,   8993,  13145, -14217,   3922,   -394,  -8972,  -3801,  -5189,  11290,  -3265, -13065,   1119,  -3868, -12013,   3814,   1679,  12565,   1510,  -2908,  -7137,  -5273,   9331,  -9013,   3063,  15475,  12873,   7287,  11218,   3291,  -2673,  16010,   9410,  14471,   8599,   8850,  -7769,  -2851, -13799, -11023,  -6091,   1873,   4370,   3827,  12763,  -8938,  -4019,   -619, -12253,  -3989,   6054,   4527,    666,   8438,   2162,  -1696,   4380,  -7606,  14295, -12165,   2754,   8367,  11730,  -1528,  -4892,  -1697,    768,  -4848,  12840,  -2663,  -6983,   1486,   2446,   7151,   5314,   8635,   5610, -11484, -12464,  -2610,  -3423,  -1685,  11353,  -1608,   5390, -11906,  -7876,  -5851,   1836,  12035,  -3329,   1499,  12999,   4078,   9289,  13906,  -5548,   -250,   6963,   -761,  -5283,  -2777,   4731, -17083,  -2444,   1114,   6386,  15792,  -1688,      9,   8110,  -1951,   8463,   1610,  -8844,   3879,  13331,   -833,   6439, -10319,   6446,   5210,   9520, -11877,  13934,   6497,   9273,   5484,  -2889,  -9623,   -882,   5106,  -6673,    270,   -734,   5319,  -6393,   1192,   1165,  -2860,  -6123,  -7828,   3411,   9605,    -35,  -8598, -11932,  -5366, -11356,  -6105,   6741,    581,   1771,  -8946,  21339,  -6402,  -2414,   9703,   2733,  -1664,  -9185, -10759,  -4527,   6889,   9273,   5195,   5387,   -271,  -8371,   7745,  -3486,  -5347,   4901,  -7839,   3977,   -260,  -1966, -13948,   9931, -10462,   9201,  -2233,   9354,   7186, -11033,    917,  18473,   2374,   -230,  -4118,   1951,   8683,  10653,    698,  -1141,   4910, -15262,   -386,   4596,  -6422,  -5882,   5110,   8399, -14228,  12695, -12133,   4451,  -3587,   7995,  19886,  12865,  -1036, -10088,   1742,  -2159, -11120,   6951,  -4317,  -1313,  -4380,   7582,   7939,  -1895,  -8918,  -2499,   8950,  -2627, -16473,   2052,   4671,   9292,  10985,   3630,  -7191,   8457, -12545,   -973,  -9983,  -4468,  -5340, -11064,   2921,  -9092,   5700,   -525,  -5217, -11256,  -2822,  -6000,  -8863,   7791,   6409,  13905,  -8041,  -1267,  -7859,  -6518,   3108,  -6120,  -9374,  -5434,  -1426,  12816,  -3127,  -7042,  14153,  -4963,  -8597,  -4167,  -9030, -12373,  13744, -11283,   1834,   1491,  -9726,  -5810,   -424, -12188,   7084,   6124,  -1555,   5293,  -3149,  19891,    635,  -3635,  -5854, -12041,  -5267,   5010,    529,   8891,   3730,  10998,   5299,   1128,   7356,  10242,   7085,  12459,   6806, -13501,   -394,   4903,   7502,   9826,  17665,  -8168,   9634,  -8185,    273, -11548,  -4307,  -1929,   4243,   8055,   7806,   4126,  10168, -12308,  11423,  13760, -11449,   3132,  -6939,  11617,   6215, -11094,  11549,   6972, -11658,   6749,  -8887, -13032,   2676,  -8465, -16299,    -63,  -7097,   7089,  -9663,   5155,   4793, -12906,   6179,  -5367,   9030,  -2377,   1847,  -6020,   -779,   -868,  12697,  -2008,    361,    563,  14125,  10517, -12682,  -5078, -10384,   9070,  -6647,  -4302,  14221,   1931,   5546,  -2186,   6793,  -3846, -12273,  10127,  -5804, -12223,   7594,  -7853, -12552,  -1678,  -4665,   6108, -12721,   6012,  10218,   1521,   1893,  -3653,  14785,   5102,  17858,  -9452, -11862,   8639,  -5990,  -9819,   6001,  -6795,  -2316,  10869,   4687,   3769,  -6407,  -6109,  -9052,   2654,  -4764,  -5477,   2829,  -7419,  -8755,
         -8596, -11608,   7407,   4617,   8302,  -9420, -10806,  13190,   2959,  -3590,  -3351, -11368,   -267,  -5632,   -705,  10282,   7065,  -8115,   1820,  -6934,   5090,   1570,   3069,   1177,  -5415,   7105,   9532,  -4756,  10685,  -9584, -10652,   6898,   9746,  -1780,   7784,  12188, -11584,   7657,   1046,   -867,  -6965,  11570,    860,  -1075,   -261,  -5695,   3696,   8425,  -2803,  -2866,   2761, -15342, -10960,  -6809,    843,  -9265,  -1923,  11492,   6698,   4752,  -1856,  -3002, -11693,   5517,  -5710,  -4630,    520,  -8864,  -8334,   2927,   -466,   9963,  10461,  -2368,   8084,   8162,  -8493, -12335,   9794,  -2567,  -2686,   6014,   5892,  -2218,   9536,  -9216,   9548,  -9347, -10178,   4325,    547, -12450,  -4191,   9707,  -4081,  -4713,   7363,   8208,   4959,  -2124, -12961, -15353,  -4922,  -8576,   4561,  11355, -15289,  -6645,   2858,  14142,  -6714,   2442,   7195,   2467,  -5424,  -5509,   -890,   4600,  -8836,   3567,   4081,  -1478,  14058,  -6301,   -215,  17224,  -5146,   5750, -14399,   6895,  -1111, -22094,  -5543,   1875,  -3561,   6530,  -5115,   4094,  12021,  19334,   4030,  -7375, -10042,   8884,  13798,   4210,   3271,    403,   6175, -15106, -13367, -13347,  -2833,  12369,   3212,  10710,   5775,  -6120, -11496,    546,  -3237,   8353,  -5633,   2492,  -2681,  12310,  -6226,  -2358,  -3010, -11123, -11219,  -1194,   2886,   4099,  -6807,  -4385,   4491,  -1641,   4319,  12328,  -4835, -12387,   8965, -20652,   -723,  -5554,   5200, -13791,    920,  11871,  -1088,   8848,   4658,  -8360,  24095,   2126,  -4474,   7344,   5341,  -8410,   3120,  12568,    213,  -7033, -13471, -16279, -11392,   1423,  -1275,     31,   2390,   -503,  -9854,   5340,  -9434,   8025,   6254, -12365,  -2557,   7061,  -9476,   8185,  -7505,   5978,   3110,   1711,   3980, -13351,  -4720,  11524,   6234,   8118, -11352,  -6348,  11790,  15009,   3417, -11925,   1238, -10907,   8189,  -3539,   5964,  -2683, -11697, -12544,  -1410,   3688,   3076, -14625,  -4509,  -8696,  -9049,  -7787,   5467,  -2199, -10702,   2711,  -7480, -10729,  14281,   3269,  -9981,   6286,   7084,  -4130,   8837,     49,  11826,   3409, -12754,  -9825,   1366,  10698,   2022,   2618,  10362,  -1596,  -7364,   5263,   4068,  -2777,   2721, -20004,  -7217,  -3368,    321,  -7786,   8231,   9692,  10938,   4813,  -5599,    418,  -6465,  -6565,  -5610,   3875,    217,    599,  -9750,   8691,    752,   6523, -12111,  -2479,   9357,  -8795,   -349,  13464,  -2647,  -2722,  -3887,  -6566,   9476,   8240,   3098,   4784,    855,  -8843,  -1011,   -156,  -3408,   9818,   -412,   -493,  -7215,  10360,   2449,    486,  13789,   5107, -11484,   5794,   2737,   5406,  10875,  -7004,   5695,  -5873,  -6616, -13479,  11756,  14505,   7057,  -1747, -16877,  -8942, -13903,  -3921,   9590,  -9298,   7476,   5972,   1783,   8339,  10161,   -851,   5997, -14534,   6121,   3420,   4766, -11631,  -6437,   5421, -11793, -11824,  -2974,  -2184,  -3611, -12645,  -3396,   8031,     44,   -560,  -8671,   1074,  26490, -14574,   1100,  13976,   2495,   1387, -11875,   5462,  -2715,  -2888, -13203,   2824,   7574,   9495, -10521,  -2264,  -6388,   9320,   2615,  -4746,      8,   8542,   3358,  -6533, -10508,  13489,   5554, -20364,  -6472,  -8564,   4985,  14156,   7833,  19357,  -3597, -15983,   6382,   8295,  -5992,  -2869,   4950,   -581,   5043,  -6391,   3156,  -6121,  14979,   5352,   4567, -17644,   4820,   7088,  -3835,  -3644,  -1517,  -7071, -17548,  15825,  -1666,  -7725,  10232, -17906, -15651,  -6366,   7886,   3820,   2845, -12390, -12508,  -3306,  15109,    305,  19447,   4772,  -7741,  -9749,   1162,    714, -11215,  -5711,   3732,  16201,   1958, -13549,  -6018,  -5391,   -902,  16166,   9156,   6464, -11123, -14375,   3285, -14273,  13631,   -882,   9848,   4675,  -3109,    269,   7288,   9246,   1331,  -4598,  -6707,   1915,   3622,  -5364,   7099,  12708,    -62,  -8804,  -3070,  15300,   8502,  -7047,  -6174,  -6186,   2281,  -2051,  13691,  -7670, -10968, -12128, -12278,  -7779,  -8902,   3173,   8088, -15331, -12569,  -2629,   4548, -14737,
          5737,    936,  -5516,   8943,   4992,   9481,   -458,   8306,   6612,    324,   9362,  -1069,  13487,   6212,  11402, -12809,  -3945,  -6215,   5844,  11547,   8453, -10753,    516,  -2332,   9203,  -2147,  -6612,  -3201, -12355,   -695,   7030,   8882, -12721,  -7528,  -7179,  -7955, -13669,   6801,   1681,   3211,    651,   7523, -11206,  -9396,  -4196,   5343,   1406,  -6643,   5082,   2309,   8584, -18501,   4435,  12066,   -107,  -7164,  10649,  13062,   7901,  -6500,  -2449,  -9413, -12775,  -6473,   9465,  -2588,   8036,   9269, -12538,  -6051,   8177,   6549,   -274, -14502,  15721, -13215,   8583,  12157, -10353,   2434,  -1729,   1237,   4651,   1391,   4036,  -2720,   9082,  11529,  -4738,  -6334,   8354,  -3929,   1237, -10070,   3745,  -8119, -10924,   3993,   5172, -11740,  -4622,   6510,  -1122,  -2728,  -2887, -10504,   -738,  -1076,  -7839,  -6393,  12615,   8272,  -4622,  -8721,   7561,   7651,    754,  13896, -10943,  -1653,  19209,   8486,   1717,   6981,   9427,   1173,  11615,   1006,  -9840,    925,  10323,    560,   1531,  -3305,  -2773,    449,   3712,  -1009,    385,  -3906, -14148,  -3363,   8664,  -2384,  -2505,   -525,   9636,   3147, -14591,   5800, -14067,  -3575,    181,   4768,   6275,   5433,   1607,  -2247,   5056, -10204,  -1692,  -2231,   2594,  -5478,   -699,   9778,   1951,  -5844,  14980,   2842,   3167,  -3975, -13803,   7576, -10556,  13790,  12970,   8705,  -4293,   9741,  -9068,    862,  -4251,    913,  -7974,  -6784,  11531,   3529,  10733,  -1196, -11360,   2594, -10074, -15565,  16411,  -8695,    331,   6219,    581,   9606,  -6032,   8361,  -1532,    104,  -9780,  -6943,    886,  -2131,   9211,  -3244,  -8228,  12920,  -8803,   -281,    111,   6501,   3060,   5344,  -7011,  -7368,   5358, -12016, -13796,   6808,  -9616,    636,    315,  -5330,  13098,  10087,  -1161,   2608,  -5049,   7175,   8444,  -3108,   9254, -16621,   2656,  -2372,  -5916,  -5225,   3031,    749,  -4214,   3000,  -3591, -12724, -12611,     98,   7787, -11609,   2656,   7836,   1387, -11546,  -8024,  -6358,  -5739,   4923,  13953,  -8063,   4866,    811,   2545,  -1253,  -9773,  -7379,   8827,    297, -13194,  -7844,  12656,   -475, -12110,   8919,  -7799,   4845,   -583,  -2597,   1476,   2710,   4097,  -1690,   8429, -11148,   -877,  12804,  -7629,   8635, -10905,  -7913,   3491,   3705,   4689,  -3218,  -7309,  -7810,   5069,  14743,  -6557,  -1191,   7580,   6196,  14302,   6748,  -2300,   5385,  -7840,   5178,   6284,   6802,  -6404,  10380,  10779,  -5807,   9187,   -709,  -9537,   1967,   1926,  -8212,  -6117,  11443,   8104, -15587,   6269,   9064,   2810, -14881,   4915,    297,  -9572,  12486,   -536,   8935,   7193,   2917,  -8720,  -7033, -11568,  -2777,  -3159,  -4408,  10350,   2217, -10251,  12603,  -7974,  -2188,   6432, -16975,   8027,  -5061,   8275,  16490,  -2424,  11092,   4645,    968,  -7086,  -9385,  -4589,  -7038, -10712,  -9604, -11727,  -9898,  -7168,  -4589,   5667,  -6270,  -5874,  -8205,  -4662,  10193,  -6004,  -3786,  12672,  -7316,  -7877,  10996, -11937,  -6827,    934,  -8057,    239,  -1210,  -6416,   4065,  12343,   6466,  -8658,  -6607,  -6940,   8362,  -2946,  -8910,  -5765, -11008,  -2160,  -7189,   1419,  10850,    586, -10243,   5408, -14065,  -1358,  -3706,  -2746,    196,  -5220,  -3051,  -9180,   7647,  14030,  -9712,   -359,  -3694,    163,  15008,   1694,  -6954,   -527, -11044,  -2501,  -5172,  11128,  11008,   4408,  11339,  -9659,  -2578,  -3183,  -2712,   7174,  -4070,   3026,   2607,  12176,  -1116,  12178,   2645,   8393,    261,   1173,   1611,  17773,  -8738,   2568, -15445,  11712,   -553,    292,  17522,   2595,   4186, -11578,  -3104,   -702,  -1912, -12026,  -8271,  11672,  10623,  -5640,  10522,   -711, -15231,   4762,  -4189,  -1380, -13456,   3251,   -646,   9950,  -1974,   1194,  -6662,  -2660,   3360,  -1691, -14092,  -8503,   9425,   -744,  -8582, -12783,    401,   7426,   6991,   8848, -20257, -10292,   8282,  -8006,   4296,  -2837,  -9108,   5147,  -3712,   4554,  -1958,  -9102,   -656,  -3606,  -2069,  -7241,  -6241, -11760,   2052,
         -8988,   2345,   9909,   5003,  -6548, -11227,  11130,  -6962,  -3695,   -375,  -3353,    305,  -2525,  -1826,  -7223,  11068,   -931,  -8621,  12382,  11724,   2601,  -9541,  -8475,   9682,   2534,   4852,   9954,   2515,  -2795,  10920,   9819,   4830,  -6964, -10262,   2222,   3456,   7974,  -4419, -14023,  -1002,   9213, -13029,  -2627,    -34,  -5297,  -7775,  -3810,  -4449,   8461,   7956,    175,  -2764,  10707,   2833,  11124,  -3972,  -8927,  -9747,  14074,  -1609, -10881,   -785,   4068,  -6114,   7724,  10979,   5794,   9285,  -7450, -11065,  -3178,   1060,  -5267,   7060,   1117,   3039,  11527,  -3061,   2818,  -3285,   1151, -10066,   2042,    805,   8455, -11402, -10407,  13697, -12458,   2856,   2624,   2870,    484,  -6055,   -909,  -4885,  -9793,   -884,   4076,  -4466,  -4968,   1247,  -9240,    294,   -240,  13136,  11474,  -3348,   8297, -11477,  11480,  -5466,   6799,   -707,   8758,   6951,   2365,  -9599,  -9173,  -2768,  22299,   1217,  12350, -11675,   2988,  19925,   6703,  15597,  -4454,   3558,  15200,   -906,  -5477,   9169,   6385,   3136,  -9981,  -8859,   8315,  -2642, -14276,  -7400,  -5232,   3498,  12091,  12272,   8289,    259,   1789,   9384,   6130,  -1159,  -1898,  -5893,   -865,  -2488,  10385, -10905,  -1766,    508,  -1770,  -2092,  22248, -15047,  12268,   6294,   6276,  -1372,   4082,   1035,  -4459,  -1609,  -9643, -11513,   3232,   8898,  10226,  -3931,  -6866,  -4525,  -5319, -13151,   3143, -12860,   2666,  -1129,  13306,   4024,   5463, -11540, -13972,  -2343, -13233,   3722,  17965,  -4507,  -6705,   8323,   6377,  -6360,  -2344,   9081,  10634,   3735,  -8433, -11757,   8412,   4705,  11225,  15610,   -992,  -9165,   1850,    228,   2165,   -269,   9174, -14628,   8774,   6437,    142,   8040, -10030,  -7436,   9288,   6895,   2699,   2299,   1128,   8174,  -2318,   -153, -13248,   1004, -13099,   7868,  -7552,   4103,  -7474,   5943, -11657,  -7785,  -9757,   5688,  -3371, -13668,  -8707,   9851,    345,   6409, -16070,   -732,   -843,  -3727,   2453, -10615,  -2185,  -9676,   6923, -15947,  -5074,  -5539,   -665,   6087, -13604,   3186,   7267,  -8467,    887,  -9922,  -2429,  -8220, -11562,  -6007,  -3034,   2021,   8708,  -9756,   3235,  -1747,  -2592,  -4107,  -9219,   7307,   9028,   8405,  -8840,  10931,  -7585,  10779,   3103,   5745,   5505,   3326,   6091,  -3553,   4017,   -226,   6801,   5816,  -1937,   6420, -11804,  -8678,  14350,    788,  19831,   2612,  -7952,   1015,  -6683,  18091,   9232,  18001,     53,  -1362,  -6587, -17506,  10904,   4019,  -7667,  12425,   8617,  -3207,   9524,   1590,  -5325,   8253,   7917,  -1132,   8561,  -1801,  -9469,   3962,   6355,  -7407,  11780,  -8312,  -5972,  -4864,    457,  -9253, -12242,  15626,   7756,   6909,   8410,  -8540, -10688,    693,   -105,  -8035,  -4696,   2348,   9650,   4645,  -5397,   6578, -10148,   4727,   1478,   -615,  12442,   6644,   4906,   7962, -11020,  13758,  -1158,   7457,   -113,  -2884,   7154,   7787,  -7639,  -6451,   4551,  -9280,  11932,    739,  12534,  11447,  -2301,  14893,   1282,   6296,   2931,   4461,   1593,  -6773, -11116,  13615,  -1562,  -5923,  -6844,  -8249,  -3376, -13354,   3681,   3673,   4377,  10670,  -9558,   4451,   5605,   1264,  -9758,  10965, -11359,  -5830, -10947,   2834,  -1202, -13291,  -1778, -11023,   6860,   1624,  17715, -20708,   3284,   6446,    -15,   5832,  11356,  -9445,  -7875,  14042,  12178,   7350,  11371,  -5142,   6832,   4210,  -1464,  14429,    491, -10842,  -2482,   2433,   7569,  -6687,  15005,   8251, -13585, -11326,   9794,  10720,   7638,  -2035,  -2139, -12759,   5303,  18477,  -5399,   6370,    233,   8859,   7200, -10729, -12577, -13272,   4784, -14192,   6665,   4256,  13103,  14525,   7844, -12074, -13718,  10571,   1151,   2111,  -4662,   8288,  -2619, -14744,  -9621,   8690,  13753, -15883,   6528, -10940,  -3019,  -8249,  -9999,  -8493,  -5188,  -6860,  -4279,   -617,  -2475,  -1912,  -9286,  -6848,   4761, -15036,   7742,  -2672,    382, -12158,  11047, -11124,  -5436,   9021,  -4824,    447,  -6680,   5683,   2640, -14297,
          4539,   5274,  10281,    178,    925,  -2476,  -1770,  -7374,    302,   6251, -12725, -11785,   4631, -13797,   8547,  10570,  -7360,   1979,  10971,   5391, -10268, -14537,   -791,   4919,   -593,   9496,   2435, -16568,  -9181,  -8387,   8118,  12080,   6767,   7038,  -9093,  -6984,   7592,  -5106,  -2412,  -9626,   5082, -11130, -11259,   9311,  -5533,   2739,  12103,   3919,  16688,  -8834,     78,  -9608,  -9428,  -1698,  -4865,   9559,  -9649,  -7092,  -7056,  -7536,  -9904, -13623,  10803,   6333,  -7043,   6545,   1986,    347,  10576,  -9223,   8384,   4690,   1125,   7063,   1565, -12458,   4350, -15777,  -5739,   5754,  -1027,  -7777,  -1115,  -7984,  -3174,    989,   8009,  15145,  -4396,  -5559,   4639,   2344,  -9790,  -4286,   8752, -12017,  -5921,  -5123,   -178,   3330, -10784,   2097, -11341, -10773,  -6537,  -4617,  -8408,  -5300,  -3168, -10953,    453,    154,   7293, -14480,  -2857, -12575,  -2634, -11450,   7095,   2526,   3185,  -4100,   1806,   -265,   6319,   2715, -11051,   6194,   5542,   -485,  16424,  -4333,    858,  11158, -10712,   2601,    615,  12485,   2861,   2027,   7854, -17912,   4230, -11524,   2158,  -4346,  11623,  -6815, -13693,   4582,  -4617, -10983,   6649,   5850,   4088,  15499,    815,  -2048,   -911,  -1553,  -4440,    893,  -4544,   3092,  -6075,  -6017,   6325,   2168,   2716,  -6418,  17076,  -7968,   8904,    223,  -1966,   -398,   9908,   8747,  -9952,  -2276,   1919,  -7653, -11178, -14006,  14712, -12450,   9057, -13908,   3133,   9167,   -711,   3821,  -4782,  -5301,  15706,   1909,  10479,   3078,   9375,  14670,   8384,  -8935,   8400,   5521,  -8039,   4055,  -1147,  -8984,  13552,  -5204,   5623,  -3101,   5719, -14258, -10453,  -2593,   9925,   5975,  12191,  -6479,    624,   5240,   5394,  -2994,  17056,   9544,  -5366,   4732,  11281,   3169,   -106,   5587,  -1200,  13713,   -409,  -2145,   3124, -11674,  -6593,   6086,   7518, -15081,  -5911,  -6033,  -2342,   7625,    529,  -1702,  -6355,  -4943, -12715,   3284,   3207,  -1568,   9374,   1870,   4775,   2801,  -6683,  -7109,   2653,   1647,   6372,  -7998,  -6696,    396,   1662,   2679,  -2888,  -1699,  10203, -12741,  12336,   1727,   8949,  10397, -14666, -15054,   5036,  -1192,  -6688, -11334,   9274, -12458,  12425,   3571,  10642,   6824,    416,    805,  -6235,   -643,  -5514, -11582,   4056,   9029,    135,  -4175,  -5262,   7369, -13745,  -5295,   4531,   -451,  12433,   3287,  14915,  -5857,   6865,  18815,   1980,  15412,   8299,   5121,   7852,   4157,   5678, -15989, -10112,  11213,   6479,  11041,   5124,  12253,  -7854,  -4544, -12148,  -1573,  -4340,  -6086,   2575,  -1081,   5080,  -2947,  -9320,   8299,    797,  -8167,  11301,  -7299,   6669,  -3231,   6794,  -2969,  16664,   6696, -14244,  -7758,   5963,   -373,   -416,  -6295,   5365,   3062, -12182,  13331,   2864,  -6061,  10456,   1582,   3192,    -84,  10540,  11209,    901,   8726,  -5100,  10341,   -752,  -2134,    285,   4786,   2532,  11030,   9490,   6841,   9564,  -3777,   8788,  -5355,  -8294,   2260,  -2192,   7135,   2389,  -8562,  -2198,  -4794,  -8112, -15430,  -8916,   5324, -10395,  -3246,    861,  -3625,   3561,   9130,  -8682,   9985,   1552,  -7059,  -1251,  -5898,  -7716,   1656,   8371,   -444,   6055,  -6554,  -1742,   7421,   6817,  -9936,   9944,   5862,  -3024,   4995,  -1634,  -3675,    892,   7190,  -3578,  10886,    680, -12841,   9478,   1088,   4664,  -8881,   8447,  10549,   6400,    491, -10754,   2755,  -2309,   -880,   9233,   6263,   7434,    416,  -6508,  11155,   9472,   1939,   -744, -10866,    812,   4564,  -4982,  -9040, -13987,  -7061, -10118,   7391,   4607,  -3097,  -9064,   1678,   2061,  -8143,  -6443,  -4815,  -7033,   -715,   2227,  13082,  -7316, -10337,   5194, -13376,   -986,   6201,  -8869,  -9951,   7701,   9049,  -2711,  -9610,   5441,  -3786,   5401,  -3562,   4307,   -211,  -3350,   9549,   -291,  12684,   8772,  -1629,  -1280,  -4724,  10662,  -7414, -12587,   8417,   7728,   -197,  -6531,  -5757,  -1975,   8722,  -5944,  -8617,   2952,  10565,   2011,  -9358,   3768,  -9746,
          1592,   4759,   3430, -14271,  -2767,   8844,   3808,  -4566,   7030, -14222,   8524, -11340,  -7278,  -6833,  -8461,   2347,   -446,   8283,   2937,  -3516,   7322,  -8674,   3490,   -221,  13624,   3069,   5786,  -1357,  -3496,  18308,  -5574,   9393,   4211,   9039,  11508,  -4188,   5477, -10846,   2560,   9955,  -3879,  -8970,  -8272,    -74, -10294,   7771, -11724, -12797,    407,   6345,   7740, -15206, -10814,  -1666,  -7760,  13875,   1132,  -7904,  -9188,  19758,   6728,   6325, -12290,  -3774,   -406,   9727,  -6827,   6321,  10069,  -1942,  -4797,   9303,   1778,   3052,   8618,   1308,   9164,  -1513,   2884,  -8714,   -562, -11983,   3647,   2530,  -1606,   4014,   3975,   6332,  13192,   3017,  -9730,   7811,   3366,   2922, -11190, -17776,  -3537,  -2040,   2753,  -6813,  -7007,  -2224,  -6082,   -847,  -7913,   9602,   3865,   4202, -12449,  10637,   2564,   8865,  -7661, -11487,  -3777,  -4172,  -7403,  -1265, -12564,   5875,  12597,   8034,   3050,   7370,   8257,   3185,  10886,  -3000,   4029,   4440,   7976,   -659,   9094,   8745,   7332,  -1815,  -4606,   -321,  -2030,   6648,   4207,  -9279,   8896,   3451,  -3966,   8675,   2088,   6862,  -6538,  -2884,   4337,   -193,   5151,   8034,  -1383,  10700,   9123, -21362,   8765,   5351,  -2512, -11279,  16254,   -900,  -8097,   7821,   7768,  -6709,  -5660,   8420,   2634,  -3787,   3160,    791,  -3221,    394,  -3566,  -3378,   7547,   7928,   3735,   9043,   9112,   3035,   4709,   4460,   -658, -14265,  -6325,  10515,   -772,   -672,  13080, -11380,  23876, -11758,  -6176,   9404,   9030,  -2663,   3867,  14455,   6105,  12104,   7425,  -5549,  -2378, -17195, -11214,  -3041,   9253,  -3464,   2498,   1088,   9862,   8707,  -3044,  -7482,    775,  -2939,    212, -13159,   6550, -13194,  -3342, -10465,  10771, -13320, -11507,  15411,   -227,  10252,  -5615,  -2172,  -7092,   9548, -10483, -18083,   7120,   4448,    733,    634, -13102, -13804, -13590, -10834,    244,   4463,   -181,  -6804,  -2671,   7580,   7422,  -7948,   5540,  -2313,  -9377,   4269,   1194,   8942, -11834,  -7442,   3788,   8345,   7295,  -6428,  -9874,  -8116, -10456,  -4394,  -3864,  -8011,   9723,  -8547,   6659,  -5120, -10932,   2013,   7009,  10241,   8594, -12937,  20696,  -7328, -13598,   1335, -11099,  -6591,  -2105,   3203, -13089,   8658,   4727,   3670,   9745,  12074,   4286,   4361,   5175,  -4267,   5493,  -2545,   8107,   -141,    970,   -766,  -3053,   2218,  -5224,  17937,    861,  -2765,  -6253,   -572,   9045,  -4673,  -4679,  -7996,  -1842,   5286,  -3648,  10261,   4019,   8292,  -4877,   8544,  -5400,  -8484,  -1038,  -2784,   5198,  -2519,   1897,  -2816,   6576, -10338,   8580, -14571,  15784,  -7703,  -4518,   5889,  10872,   3136,   5439, -11810,  -9388,   6287,  10340,  -8751,   9140,   6988, -15554,   4443,   2822,   2603,  -1886,   9022,   4267,  -6480, -11372, -10495,  -3806,   7381,   5526,  -1145,   6526,  -4597,  -1928,   3866,  17637,   2390,  -1159,   5501,   3894,   9418,  -2303,  -2294,  -3213, -17649,   7554,   4220,   3152,  19101,   4799,  -9986,   5877, -13356,  15049,  16420,  10632,  13257,  -1557,  -9512, -11458,   4902,   9925,   4607,   4133,  -8774,   1541,     60,  -2580,    865,   6504,   5009,   -258,  -4079,   9749,  -6737,  -3150,  16482,   5701,  -3307,  10333,   -221,  -3974,   6378,  10694, -12971,  12428,  -6937,   3598,  -2996,  -3438,  -9436,  -6182,  -3241,   4034,  10661,  -9104,   2886,   9833,  -5987, -13253,   5253, -10800,   5603,  -7108,   3558,  -5304,  -7868,    403,  -8712,   2720,  -1989,   9406,   3846,  14132, -13143,  -1929, -17576,   2338,  15815,  -6812,  16126,  -1300,  -8689,  -5787,   4405,    765,   1218,  -8655,  -9415,   6797,    596,   3189,  14533,   7788, -11156, -11188,  -5178,   9435, -10915,  -3029,   5114,   5160,   9018, -12347,  -5648,  13277,   -212,  12015,    939,   9549,  -7354,  12068,   5920, -17977,   4126,  -8848,   3678,  -8605,  -7200,  -4433,   3924,  -9552,   2085,   2379,  -3084,  -2810,  -2539,   -611,   8538,   7797,   3146,   8033,  -5715,  -2982,  -5688,  -9534,  -4457,
         -7751,   -958,   8731,  -6895,  -5659, -11545,  -9151,  -3094,  -7458,  -6174, -11307,   7538,  -3958, -10139,  -4736,   2245,  -3858,   3008,  -4477,  -1110,  -1440,   8262, -13367,   9486,   6206,   5858,   7449,    199,   6690,    177,   2418,  -3973,  -9057,  -9975,  -9072, -11176,   8895,   3713,  -7445,   2925,   3432,   6122,    987,    685,  -8604,  -3278,   3605,   3493,  -2597, -11131,  -2431,  -9606,   5617,   5413,  -3495,  -6942,   4722,  10571,   3465,  15828, -10576,  -7063,  -9450,  -5165,   5254,  10860,  -2269, -12684,  -6303,     60,  -2382,    894,    -57,     68,  12166,  13195,   2718,  -7824, -10397,   1946,   2755,  -9208,  -7605,   7063,   7234,   3839,   7021,    776,   2159,  13757, -14491, -13843,   1454,  -8850,  -3726,   5058,  -7858,    323,   -872,  11280,  -7451,   3755,  -6706,   6253,  -4940,   1229,   3785,   5072,   3841, -11745,   3995,   3695,  -5296,  -5222,  -5734,  -2391,  11319,   7964,   9951,  -5704,  -9338,  -4701,   9148,   -389,   9991,  12305,  -1919,  -2623,  12944,  -1822,   5157,   3465,   1611,  12878,  -3971,    -10,   9849,  14007,  12231,   8698,   4007,  -3915,  -2490,  11667,   8658,  -7574,  -3888,  -7140,  -2978,   9412, -11410,   5788,   1369,   4478,  -5117,   -683,   3827,  -5404,   6326,  -8111,   3171,  -6734,  -2919,  -4788,  -9172,   7817, -10895,   -364,   1208,  -5616,   5853,  -9310,   1456,  11093,  10552,  -9586,   1540,   8397,   9421, -10292,   2728,  -8253,  -6991, -11552,  -2444,   6695,  -5008,  -2196,  -6963,   5312,   3990,   3967,  -8979, -14124,   4888,  -3126,   2815,  -1022,  10269,   5463, -14295,   -256,   1263,  -8810,   4378, -14747,   9047,   5918,  -9621,  15368,  -5156,   6736,  -2373,  -6517,  -6772,   1202,  -4533,   9879,   -178,   1959, -11156,  -2563,  -1267, -12241,  -1624,  -2737,   9794,   1922,  -5235,   3102,  -3491,  13963,   5804,   9369,   4446,  10678,  -4479, -17246,  -5645,    714,   7746,  -4474,  13352,  -1239,   -207,     -2,   4489, -15518, -16288, -15903,   1418,   5231,   -709,   9495,   5957,   4921,  10181,   5404,   4136,  -1196,  -2619,  -7097, -12641, -12965,   2790,  -4319,   9065,  -3163,   4505,  -4367,    596,  11696,  10557,   4019,   3107,  -6794, -12558,   6969,   1309,    -66,  13743, -15546,   5371, -14457,   6019,  -7953,   3372,    571,  -3555,  -1982,  -2418,  -2012,   2639,   4808,   6838,   7529,   9648,  -8392,  -1159, -18867,   3200,   -577,  -5409,  -4763,  -2074,  -3491,   1813,  -3675,  11502,   2673,   4559,  19613,   5280,  -5640,   3035,  -3592,  10827,   2571,  10199,   3784,   7680,   1833,   5014,  -1083,  -5549,  13597,   -875,  -6050,  13899,    409,  14267, -15487,  13496,  -8270,  -6469,     90,  14120,   6288,    582,   9422,    797,   5296, -11134,  -1826,   1830,   1977,  -6307,  -6873,   5260,  -5467,   9550,  -9345,   4500,  10567,  -2278,  13015,  11478, -11566,   7547,   2974,  -3971,   -839,  13437,  -5394,  -9769,  -8332, -11046,   7522,  -1938,  -3466,   1976,   3645,  -1256,  -7830,   5250,    832,  11496,   4144,  -6801,   6545,  -5085,     46, -11294,   6286,  -4553, -12514,   1207,  -2715,  -1443,  14375,  -1938,  -1150,  12460,   1744,   4782,  14482,  -4314, -12404,  -2735,   2429,  -7013,   3707,  -6934,   5914,  -7596,    -77,   5904,   5899,   8770,  14170,   4911,     12,   7121, -12436,    551, -11524,   8711,  -4895,   5668,     43,   1604,  17657,  -7543,  -1537,   1848,   7940,  27806,  -5992,  -9956,   2214,   3127,   4529, -11981,   4167,  -4099,   3703,   5833,    443,  -7665,   9313,  -2250,  -3987,  11071,   6924,   9934,   9038,   5304,    154,    752,   1097, -10440,   1419,   6492,  15368,  -4958,  11072,  -4299, -11474,    713,  11025,   -929,  -1251,  -5401,  -2977,   2555,  -7990,   9592,  14902,   9901,   5509,   5515,  -4392,  11888,   5221,   4992, -11951,  10739, -14944,   7050,   2176,    789,   1589,  -9150, -19529,   -217,  -3499,  10801,  -2753,   7759,  14295,   5395,    541,   6903,    412,   3749,  -7367,  -7656, -13487,  -2544,  -6093,   8111,   3192,  -5717,  11999,  -7911,   2662,    809,  -8129,   4990, -12902,  -1152,   5204,
         -7201,   3673,  -3441,    193,   2115,    388,   9124,  -9365,   2995,   9822,  -1449,  -9252,   2750,  -2039, -11823,  -9674,   9469,  11887,   2180,   9044,  -4818,   2007,  -2140,  10451,  11054,   4778,  12145,  -1731,   8220,   9142,  11602,  17910,  -2285, -11019,    544,  -2202,   5143,   7326, -13496,   -852,  -3018, -14635,  -1295,   3437,   2652,  10425, -11254,   1445,  16712, -11603,  -1754,  -5487,   9547,  -1903,    868,  19900,   1648,  16321,  13386,   8550,   8886,  11211, -11694,  -8425,   3944,   8463,  -8138,  10478,   3175, -11033, -12587,  -3197,  15133,    996,  -2546,   5182,  -4232,  -4882,   5868, -12981,   1674, -12985,  10949, -11807,  -5485,  -2462,  -2606,  11075, -12986,  -2670, -10762,   1653,  -4099, -11892,    633,  -6481, -16242,   4179,  10112,  -4081,  -8704, -11262, -12777,   5859,    -12,  -9820,   9940, -13751,   7001,   7395,  -6931,  10337,   3989,  -6504,  -3079,  -8330, -11183,  -7372,  -5995,  10081,  13686,   3162,  -3596,  10891, -11714,   3547, -10989,    565,   2896, -11104,  10780,  -8179,  -6447,   2826,   1000,   -515,  -1821,    655,  -2301,   4433, -13345,  -9473,    606,  11558,   3406,    360,  12920,   8741,   1018,   7151,  -8852,   -956,   4510,   1046,  -5232,  15685,   6153, -15220, -11977,   2335,  -1051,  11109,  -8649, -11702,   4547,   8867,  -1585,  -1061,  -9098, -11388,   -666, -13259,  -8714,   3179,  12504,  -9914,  -1885, -15617,  -1845,  -4749, -12871, -17627,  -6163,  -4997,  -5551,  -1977,  14516,   4633,  -6081,    875,   -765,  -3404,  11730,  -2663,   2102,   1644,  -4172,   7030,  -2810,  14267,   4190,  -3922,   -614,  -2274, -11201,  -1372,   7282,  -9173,   8381,  -4948,  -5437,    743,   3315, -11961,  -5173,  -5362,  -6674, -13499,  -7502,   2019,    -47,  -5467,  -1473,  -5462,   4838, -11003,   4118,   -941, -11181,   6438, -11740,   3024,   1269,  12050, -10550,  -8520,  -5784, -20225, -10177,    372,  -9467,   5076,   7228,   3483, -11132, -13130,  11020,  11584,  -3169,   7149,  -4013,   -622, -12292,   4904,   8494, -13101,  -5828,  -1025,  -9540, -15672,   7809,  -8260,   6488, -13148,  -8888,    679,   4270,  -6402,  -9207, -10471,  -6803,   4345,  -4837,  -3062,   8462,  -4188,   1804, -15306,   2529, -13789,  20744,   3705,  11525,   -214,   9797,  11836,   9925,  -3403,   5460,  -3167,  -2029,   5575,  10278,    298,  -3091,   2965,   9432,   6562,   4046,  -9210,  -2448,  -7079,  -3703,  -3235,  10063,   5280,   1442,  -1125,  -6645,   5111,   6970,  14721, -11780,  -2012,    197,  -3359, -12241, -14279,   6160,   1192,  -3736,   5191,  -7389,   9590,   -308,   4127,  -2753,   2885,  14868,   4916,  -6516,   4506, -11627,  -1220,  -3036,   8591,   8280,   8056,   1770,  -9808,  -2875,   7995,  10048,   5663,  -5948,   -523,   3405,   6618,   3166,   5686,   9430, -17126,   9734,  -6773,   8170,   5403,  -3174,   8756,   2942,   5889,  -2392, -11440,  20655,  -2207,  -4972,  -9536,   -354,  11258,  12361,   5641,   5800, -11368, -11963,   8695, -11511,   5162,  -1745,   8961,  -5360,  10776,  11615,   3199,  -8184,   1542,  -1885,   7947,   4011, -11149,   7848,   8251,   4855,  12763,  -1477,   7401,  -8429,  15631,  -8201,  -7592, -12768,  -9844, -11190,  -3101,   5315,   4797,   3174,   1315, -10148,    307,   9966,   6572,  -5746,  -4364,   8530,  10614, -11310, -11671,  -2856,   3124,  -1801, -16830, -10899,  -1806,   2061,   9956, -13934,    861,   1897, -13341, -12235,  -2597,  -4995,  -8693,    368,   7848,   3567, -11645,  -3495, -18166, -12532, -13596,  -3151, -14514,   -995,  -5837,  -3784,  -1526,  -9971,  -2130,    843, -17770,   1965, -13476,   4565,  10853,   3918,   1953,  -4034,  12158,   8732,  10988,   8487,   1047, -12652,    175,  -2239,   8436,  10003,  17843,   4559,  -2397,   -682,  10144,   6765,  -1451,   2719,  -8970,  -3742,   4753,   3323,  -7004,   8763, -14086,  10525, -20320,  -7248,    720,   1858,  -7501,  -9876,  -2357,  11672,  13321,  -9514,   1771,   6987, -17120,   2131, -14102,   4208,  -8214,   3417,  -6380, -12920,  -6191,  -6303,  -8449,  -6946,  -4134,   8056,  -2569,  -9229,  -4735,
         -9100,  -6259,   5572,  -7998,   -204,   6181,   9956,   9522,   9806, -16087,  13252,   1226,   4553,  -2522, -11444,   8762,   9645,   5489,  -4101, -10544,  -4625,    289,   2884,  -8727,   4940,  -5402,   5944,   6008, -10157,   4488,  -1175,  10777,    593,  13476,  11232,  10761,  -7193,    114,  -7734,  -5571,  13050,  10101,  -7553, -10655,    633,  -6177,  -4779,  11158, -11547,  -2481,  -3573,   5336,  -9813,   8735,   1950,  13730,  -3054,   6398, -11479,   5973,   5255,   9480,   2738,   4532,   8110,    852,   3315,  -9157,  -4670,  -8458,   7854,  -6152,   8867,   1874,  -4593,  12605,  -9750,  -8574,   1965,  -1138,   1959,  -4704,  -4364,  10362,   2231,   9509,  10040,  10563,   1787,  -5338,   2785,  -9222,  -9090,   2978,  -5630,   4321, -12360,   7102,   -274,  13868,   1354,  -8072,  -4856,  -8215,  -7028,   7926,   -854,   5008,   4439, -15225,  -2968,   8809,   3305,   1558,  12299, -11936, -12253,   8598,   -269,  15296,   5063,  -6000,  17593,  -2657,   3727,  -1980, -10122,   5739,  -2194,  -8257,  11053, -19147,  -5815,  -1922,   9371,   9125,  -1863,  -1462,  11008, -11837,   6869,  -2948,  -8478, -12741, -10797,   2100,  -5259,   9137,  -6854, -13557, -10906,   1172,  -2470,  -3640,  -4720,  12662, -11259,   4828, -13600,   9144,   1059, -14186,  12241,  -1598,   4368,   6700,  10324,  12799,   6703,   6069,  -5093,  -8848,  10147,   8088,  -3393,  -7544,  -6324,  11320,  -2618,   4105,  -4966, -12450,   -193,   2675,   2913,  10636,   -825,  -7228,   8799,  11026,  -3038,  -3640,  -8511, -13577,  15409, -17434,   9774,  16461,    544,   7967,   1914,   5841,   7272, -11828, -13403,  -4043,   6953, -17117, -11662,  16037,   4414,   3877,  -1282,  -1191,    111,  -9497, -13639,  -7054,   -831,  -3578,  -9213,  -1989, -14346,   5623,  -1798, -10959,  12676, -19967, -10345,  -2168,   3888,  -7716,   5789,  -7233,   9828,  10388,  -8515,  -6664,   6893,   6965,  -8587,   2592,   3898,  -8898,   3573,   3642, -12027,  -9708,  -3735,   3926,  14186,   3376,  -9290,   5342,  10169,   -802,    869,  -6390,    647,  -9855,   4169,   2998, -11759,   9277, -10518, -15822,  -4837, -13449,  -8262,   8124,  -5455,   5064,   8098,   1366,   1982,   8916,   1065,   -146,  11676, -12766,   -305, -20767,  12955, -12566,   8689, -13118,   5182,  12191,   6653,  10203,  -3782,  -5953,  -3732,   6795,   3975,  -6942,   6410,   -890,  -5537,  -5479,   9359,  -8174,  10018,  -4228,  -1366,  -5701,  -2157,    968,  11382,  -4896,  -6821,  -1690,   2914,  13084,   5943,   3624,    280, -10726,   6203,  -7333,  13127,  -4494,  -9860,    646, -10173,   5948,   8301,  -7042,    396,  -1785,   5382, -13246,   4323,  -3907, -11118,  -3262,  17504, -11285, -10427,    985,   7258,   3938,  10346,  14059, -11378,  -2625,  -2308,  13124,  11132,  -7018,  -1014,  -7300,  12656,   7023,  -5228,   8436,   8846,   7725,  -1500,  -2768,  -8016,  -9505,  -8585,   -917,   8384,   5937,  -7863,  12048,   9644,   5896,   6379, -11109,   4788,   9114, -11390,  15722,  -5603, -14318,   8526,    139,  -6549,   4263,   3599,  -5067,   3501,  -4623,  18116,    331,  -9256,   6016,  -8428,     19,  11379,  -3302,  -1193,  -7499,  -7350, -13074,  -5498,  10373,  -7562,  -9264,  -5573,  -7363,   6650,   4981,   5607,   5229,   7620,    450, -10894,  11327,  -7721,  -2298,   9973,   3305,  -4062,  -7981,   4804,   4975,   6823,  -2473,   8670,  15599,  -1866,   5258,  -6645, -11077, -12151,  11679,   6606,  10050,  -8692,  -4510,   1058,  -8060,   9713,   2645,   4894,  -8244,     19,   2792,   6435,  -6197,   3326,  -1947,   3693,  11637,  16237, -17172,   1609,   1295,   6106,  -5441,  -6149,  -3533,   4115, -11385, -10605,  -6244,  -3304,  -3802,  -4442,  -7076,  12113,   1417,  -5735,   -552,  -7294,  -1773,   3837,  -9675,  -1942,  -1668,  13248,   4140,  10550,   2107,  -6541, -12009,  15467,  -2145,  10377,  -4910,   5342,  -8875,   2657,   3887, -13488,  -5336,  -6269,  -6013,  -8270, -10541,   4238,  -2885,   7591,    848,    553, -16866,   5570,  -6520,   -904,  -8735,  -9782, -15230,   3527,  -2188,  -6085,  -2271,  -4865,  -3738,
         18024,  13159,  -3545,   -566,  -8081,  11333,   3258,   -751,  11296,   6697, -10067,  10604,  11189,  -2445,  -5711,  -6345,   9624,  -9566,  11759, -11594,   8393,   4014,  -3742,   9728,  12335,  -2099,   5520, -11427,   5957,  13551,  -3521,   4980,  -5953,   8326,  10286,  -9723, -10718, -11431,  -1136, -10481,   1642,    500,  -6429,   -142, -12375,   1542,  -2768,  -4487,   3464,   3314,   9557,   -277,   7270,  -7160, -13202,   2366,  -7411,   9089,   1183,   3335,   3162, -13162,  -4898,  -5154,   1136,  -5464,  -7190, -10602,  -3153,  -4737,   4516,   7859, -11995, -10293,  -7426,  13367,  -7721, -14093,  -2748,  12485,   4104, -10043,   -909,  -5323,  -5625,   9721,  -6247,  10587,  -2607,   -421,   4796, -11723,  10012,   -169,  10118,    732,  -6881,   7929,  11303,  10427,   4283,  -8110,   5138,  -1478,   7777,    973,  21472,  -5098,  -8837,  -5376,  -3232,  -3944,  17801,   4312,  -6477,   2278,   4100,  17072,  -8678,  -4360,  -4253,   6022,  -1704,   3204,  12132,  13708,  -3803,   2557,  -4013,   -854,   2949,  -9917,  -1015,  20403,  -1304,   1720,   6348,  -8096,  10892,  -1191,  -2274,   7151,  -1229,  -5628,  -1492,  -9468,  -2250, -11615,    648,  -2918,  -6860,   3715,  -6920,  -7791,   5638,   1134,   8513,  -6649,    -95, -15816,   9381,  -4375,  20108, -10195,   5288,   5785,  11225,   8397,  -5844, -14830,  14443,  -5078,   -130,   3650,   1227,  11163,  -2729,   9053,  -6909,  -7376,   6497, -12409,  -2488,  -8959,   6261,  -5419,  13852,   -149,  -8525,  -5158,  -9117,   -597,   6311,  -2501,  10054,   -472,  -4410,   7406,     92,   7390,   2919,   7879,    907,    696,  -5145,  -6100, -13884,     99,  -5960,   -791,  -3768,   2249,   8359,   3576,  -7691,  -4945,  -2190,  -4923,   2305,  -9938,  -1444,  -5182, -10731, -10432,  -2263, -15976,  14729,  -5861,   7936,  -8929, -14101,  -5247,  -1870,  -8925,   8924,   3511,  -8946,  -8653,  -1032,   9914,   5240,   2980,  -9876,   6274,  11242,   9756,  -4086,  -4938,  -8613, -10301, -15168,  -2104,  11451,   4258,  -8099, -17718,  10812,  -6416,   -656, -13762, -12077,   4005, -11334,  -9885,  10274,   1084,   4585,   8978,  -1292,  -7532,  10499,  -8499,  -2903,   7071,   4358, -12808,   6003,  -1366,   3779,   7686,   2008,  -1201,  15274,  -2919,   3509,  -2110,  -8695,   8972,   3738, -10548,   8430, -11818, -13643,  12463,   3685,   6070,   7498,  10572, -18176,  -6571,  -8510,  -2454,   8894,  12103,  17207,  -1919,   1307,  -6566,   9305,  13268,  -8776,  12482,  -4552,  -2011,  -8741, -11241,  -7499,  -9689,    -51, -12018,   8972,  -8306,  15118, -12984, -13021,    191,  -4525,  -1704,  -5154, -11700,  -6845,   6556,  -1488,   6081,   -365,    475, -10455,  -3312,   9038,  -2834,  10760,   5753,   2246,  -8200,  17976,    307,   -503,   -611,   -568,   7349,   3935, -16077,   3013,  -4671,   -283,  -5123,  -9299, -12380,   4919,  -1059,   7827,  -9808,  13048,  -4974, -11231,   3413,  -1906, -11671,   9043,   2377,   7365, -11420,  -9394,  17530,  -6247,  -9160,  11676,  -3618,  25279,  -5304,  12846,   6849,   2001,   3831,    454,  -8311,  -8095,   1863,  -4867,   7590,  -9258,   5688,   2739,  14642,  -3508,  -3997,   -912, -12781,  -6238,  -7738,  -9196,  11401,   5393,  14352, -11141,  10342,  -4691,  -4842,  10188,   2928,  -7195,  -2259,  -9006,   4388,  -1534,  -2783,   7458,   -114,  13614,  -6263, -10188,   1408,  -6078, -14296, -12574,    826,  15786, -13508,  -1098,  -5981,   1759,   1166,  -6799,   2558, -13102,  -2482, -10306,   8004,  -3610,  14060,   1183,   5578,  15120, -15326,   9009,  -1858,     81,  -9036,   4363,   1930,   8238, -12000,   1905,  -6424,  -4915,  14406, -10348, -10654, -12883,   9138,  -5332,  -7659,   7930,  -4534,  -7195,   7858, -13772,  -7690,   8059,   2359,  -8397,  -6907,  -1274,   1931,  18395, -13468,  -9875,   -373,  -1941,  -2224,   9643,   3200,   7902,   8202,  10625,  -8707,   6238,  -4603,   5973,  -5863, -10772,   2264,  -6414, -13220,  10944,  10587,   9124,  -8242,   7685,  -1709,   9961,  16533,   3090, -12830,  13387,  -1259,   3799,  -4532,  -2455,   2396,  -5931,   6938,
         -1875,  12266,   7264,  11064,   5079,   2677,  -4106,   2793,   9265,  -8586,   1122,  -6295, -12770,  13452,  -6669,  11860,  13703,   1350,   1389, -10749,   9963,   1225,    -53,  -3777,   4660,    505,   5542,  -3340,   -749,  -2987,  11466, -12387,  -8290,  -6883,  12602,  -7263,  -3504,   3936,  -8199,    -90,  -4760,  -4073, -14740,   2839,  11470,  12155,    -62,  -6219,   8429,   6985,  24187,  -3793,  13517,  -4262,   2387,   6282,  10245,   4499,  -1240,   6110,   7280,  -9176,  10598,   1743,   3348,  -5971,  14645, -11971,  -4531,    648,   4245,  -6404,   4153,   3651,  -2631,    -11,   8346, -14151,  -9388,  -4453,   4219,   9099,  18033, -10039,  -6299, -11622,  -6504,  -3257,   5834,   7240, -12281,  -9611,   7064,     77, -12634, -10320, -11490,   9078,  10675,  -7870,  -3238,   3507,  10049,  11654,   8414,  -3835,  -5176,  -7465,   2512,  -1862,  10977,   3963,  -3195,    907,  13961,  -9841,   2748,  -2955,   8050,   1621,  20707,  -7299,   3313,   6664,   3598, -10523,   2252,  -7084,   2979,   9044,   3554,  12155,   6547,   2337,  10295,  -6143,   -885,  -5469,  -5894,  -1728,  -3147,   7994,  -1033, -10066, -11746,  -6560,  -9018, -13401,   9972,   5053,  10071, -12571,  -3282,  -1858,   4085,  15594, -13739,  14656,  -7993,  -1466,   6883,  -2476,   6528,  -2783,  -9693,  10496,   5303,   8063,    128,   6446,  -8460,  -4877,   6637,   2437,   2681,   5736,  -5405,  14217,  -6551,   9614, -13473,   6224, -11005,    693,   7438,  -8750,  19234,  -7713,  -3937,    994,  -8464,    169,   -120, -20876,  13648,  -6519,   2397,  -2488,  -7997,  -2818,  -7203,   7673,   7360,  -3942,   1766,  -8344,  -9303, -10246,  -4851,     22,  -4347,  -7127,  -7002, -11843,   8334,  -4359,  -3763,  -8829,  -5390, -16356,   5033,  -9380,  -9621,   3865,  -6035,  -9387,   7017, -19463,   8485,  -7356,  -8924,  12881,  -3736,   5031,  -9749, -11780,   9248,   3765, -10526,   7397,   6500,   -932,   9425,   -403,   3098,  -7744, -13945,  10487,  -6552,  11882, -13009,  15546, -10046,  11859, -10471,  -3006,   1089,  -9887,  -2120, -12312,  -6151,  16869,  -2266,   7688,  -2055, -11417,    745,   5847,  -9709,  15730,   9240,   4699,  -2968,    205, -14320,  -7964,  -5158,   2739,  -8902, -11520,  16309,     46,  19199, -10024, -10773,   -708,  -4418,   5333,   3158,  -7207,   6608,   6865,   1882,   7784,   2852,   9813,   5318,  -1716,  -7352,   3371,  -7765,  20031, -11922,  -7385,  -9589, -20460,   3634, -20566,  11358,  12289,  -3838,  15524,  -4833,    597,   9686,   6172,   1226,  16616,   9653,  -6176, -10506,  10213, -13072,  -5897, -13269,   2073,  -2046,   5852,  12749,   6934,  17110,    910,   7875,  10104,   -478,   8102,  -2940, -15944,  -4138,   -567,   5627,  -4878,   1073,   4336,   1150,   7062,   2900,  12506,  -1298,  -5980, -13165, -16443,   1205,   4350,  -1641,  -3102,   4820,   2476,  -7808,  -4217, -13707, -14061,  -1383,   4811,  14806,   1243,   1160,   -676,  -5248,   9095,   6187, -14149,   4722,   7261,   4953, -11492,  -5502,  -3486,  16583,  -1117,   7529,  -6688,  12163, -11056,   8989,  -3160,   4157,  -5280,  12782,  11322,  -4625,   9130,  -6816, -10506, -13595,   7727,   7848,  -4059,  -9384,   9745,  -3258,   3293,  11615,   4296,   1908,    188,  -3347,  11664, -11094,   8642,  -5469,   7779,  -7975,  15044,   5166,  10761,  -8625,    912,  11478, -16615,   5703,   7434, -11901,   4023,   -197,   6061,   1739, -17914,  13216,   6862,  -8066,   2719,  -2129,  20263, -14464,   8116,   8274,    376,   2065, -10804,   5760,  -3769,  17936,  -5817,  -1110,  -6356,  -2276,   5643,   8486, -13138,  18112, -18213,  -8281,  13861,  10208,  -7650,  -1831,   1379,   1902,  10606,  -6515,  13126,   2159,   2058,   2817,   8355,  -3488,  15912,  -9837,  12478,   4476,  -4992,  -8718, -11304, -10217,   2093,   -394,   8906,    -70,   9620,    444,  -9379,  13301,   1959,  -8375,  -2110, -13685,  -4102,  -8876,  10395,  -4892,  14820,   6113,  -1567,   1031,  10100,   9138, -12378,  10895,   3336,   8927,  -5750,   8346,   6755,  11960,   8345,  -1004,  11010,  -4194,  -9421,   8932,  -2702,
          4406,    -52,  14372,   4038,  10415,   1150,  -3399,   3294,   -316, -11197,    302, -11690,   3365, -10645,  -2498,  -8298,  -6079, -10075, -15085,  10407,   2152,   3411, -10165,  -1526,  -6313,  -6520,   7536,   2056,  -9045,  -8760, -11787,   -224,  13285,  -7642,  11388,   9722,  -7290,   4766,  -5747,  -4658,    523,  -3166, -10889,   -714,  -4028,  -6348,  -5729,  -6071,   -687,   1763,    715, -15935,   7260,   5453,  -4757,  -3089,  -2109,   -217,  12053,  13415,  -4009,  -6296,  10410,  -2890,   8064, -12191,   6194,   8863,  -7531,  -7297,  -8971, -10709,  -5578, -15098,   9528,  -1544, -12493,  -3662,  -5433,  13313,   6605, -16132,  14963,  -9076, -10162,  -1491,  -9657,  -2402,  -2471,  21717, -19093,   2263, -10645,  -7082,  -8135,  -5196,  13373, -10252,   5756,   -583,   9584,  -4669,  -1068, -14146,  -2943,  -9961,   7803,  -2797, -10695,  -3683, -13467,   4288,   2051,   6233,  14164,   1471,  -7552,  -3349, -12548,   -626,   6153,   1848,   9470, -14545, -11717,   1220,   3968,  -7526,  -1504,  -1124,   9463, -15444,  10731,   5404,  -4943,   9289,   5815,  12480,  11200,  -9931,  -4995,  13551,   3099,  -4226,    228,   8477,   -873,   5629,  -7586,  -2493,   8053,   4080,  -9125,  10730,  -9403,   8644,   5966,  12537,   2488, -11716,  14471,  -5301,  -4903, -15337,   7903,   6029,   6249,   6955,  -6060,   3454,  14329, -10513,  -4755, -15632,  -2877,   -704,     28,   7802, -29498,  -5421, -14273,   7136, -12464,  -7280,   6927, -13565,  -5655,    762, -12763,  15711, -13139,  -2647,  17039,  -6099,   3014,   3142,  -3100,  17520,  -6637,  13407,   1964,  -8299,  -5486,   5719, -14919,  14803,    588,  -8478,  -4512,  10435,   4424,   2967,  10096,  11973,   3593,  -9199,  10045,  -6129,  -2614,  -4577, -14358,  12555,  -4721,   6144,   6492,  -3465,  -4263,  -7320,   9058,   7659,   4958,   5328,  -7070,  -5488,   3818,  -4492,  -2172,   9697,  -6943,  10763,   6972,  -6211,  15718,  -6626,   4388,     87,   2035, -10705,  10851,   4353, -15459, -11709, -12054,  10513,   7117,   2412,  -3782,  -7609,  10164,   8617,   -636,  -3453,  -2752,   -667,  15514,   4564,   4353,   8504,  -8477,  -5226,  -1907,  -3368,  -6374,   3795,   3931,  -3500,  -3992, -11201,  11206, -11142,  -3630,    917,  -1917, -16681,  -1746,  -8471,   1796, -13111,   7669,   5754,   5290, -12382,   5708,  -3893,  -2725,  -8676,  -6169,   3854,   1127,   9255,  -3467,   8508,  12196,  -4678,  -3316,  -8393,  17744,  -3198,  -1039,  -4085,   4747,   8191, -13238,  -9512,  -9424,   -622, -10441,   -737,  11081,  -9248,  -7431,   9871,  14795, -12567,   4781,   9730, -12260,  -6782,  -5306,  -9466,   3094,   1885,   4051,   7262,   8949,    -33,   8628,  -3145,  11264,   5541,   4602,   8340,    406,   -410,  -7115,   5120,  -6658,   -161,  -4254,    712,   7603,   3478,  -6304,   1771,   3757,  -1788,  10401,   6658,  11917,  -9217,    415,  -6737,  -1940,  -5262,  -5607,   5265, -11975,  -4528,   4945, -10058,  16913,  -4342,   1529,  -3085,  -9875,  -6377,   3180, -14699,   7059,   1500,   1877,  10003,  -4803,   9465,   5818, -11190,   9896,  -3141,   5654,   4010, -10030,  13381,  -3564,   6698,   -496,   5615,  -5461,  -3685, -12180,  -4972,  -6403,  11755,  -2013,   9476,  -7242,  10159,   8108,  -8738,  -2832,  16112, -12362,  15842,  -1845, -10245,    129,  -8894,   6707,    493,  23015,    -73,  -8696,  -8519,  -1122,   2872,   6007,  -5350,  -6144,  -6680,   -302,   8886,  -2656,  -7273,  -3839,   9206, -12896,  -1740,  -6706,   5068,  -6194, -10256,    -74, -14671,  18900,   1750,   5150,   8587,  -4296, -12829,   2477,   4630,   5902, -19302,  -1891,  -1397,   6009,  10754,   4938,   5289, -10272,  12153,   2692, -11245,  -1770,   -840,  -9946,   9863,  -3636,   3803,   9410,  12370,  -4746,  11401,   4967,   4165,    343, -16866,   6046,   -974, -14223,   5344,  11796, -11407,   4716,  -5978,   2913,   2625,   8398,  -1862, -13123,   -304,   4404,  15269,   3380,   7239, -10240,   1138,   3714, -10467,  -9151,   4688, -11313,  -1922,   -424,    107,   2064,  -2291, -10549,  -7991,   8003,   4521,    461, -15271,
        -11914,  -5030,  -5126, -10153,   9216,   2814,   1854,   8843,  -3231,   -708,  -9804,   4636,   8611,  -9579,   5963,  -6777,   1514,   5843,  -3847,   2454,  10586,   4510,  -9528,  -3137,  -5138, -12211,   7736, -12471,  -9299,   9369,  -7029,  -1910,  13983,   6517,   2865,  10759,   2789,   7918,    831,   7279, -10414,  -1432, -13888,   7959,   5112, -11815,   5835,    105,  -1377,   -683,  12511, -21522,  -1197,  -7316,   9460,  -3723,  -2332,   9352,   7865,  -4473,  -5042,  -5956,   6584,  -4708,   7424,  -3810,  16631,  -7005,   8629,  -3200,  10927, -10962,  10818,  -3901,   7338, -10416,   4378,   9849, -12228,  15910,  10541, -10839,   -233,  -7891,  -6162,  -7311,   6932,   8877,   7542,  -2373, -10949,    809,  -6914,   8037,    303, -17790, -10976,  11298,    700,   2692,   5741,  -7510,  -3096,   4140,    330,  -3075,  -2070, -10286,  -5032,  -4648,  -5227,   7540,  12014, -17326,   5460,  -8855,  -3441,  -2723,    -12,   2506,   5332, -19859,  13715,   1516,  11362,  10375,  -4303,  -8668,  11774,  -5835,   8336,  -1950,  -8988,  10545,  -3511, -10435,   -681,   -449, -12510,   8845,  -4688,    820,    304,  -6686,   6608,  10287,   7084,  13076,   -277,  11892, -13450,  -5573,  -4034,   5635,   3589,  18532,  10441,  10676,   3005, -12427,  -8212, -14036,  21163,    183,     43,  -5293,   5650,  -2539,  -2520,  -2533,  14112, -11767, -11614,  -5886,  -4374,    731, -10893,   7684, -17664,  19614,  -6168,   4680,  10256,    248,   7062,  -8203,   -462,   1925,   2496,  -6323, -12031,  -7208,  13679, -16340,  15336, -15682,   1226,   1321,  -5863,   1096,    621,  12685,  -5264,  -1265,  -4833,   -168,  -5825, -10545,   5126,   2591,  -2940,   5870,  -8709,   3471,   -797,   1977,  -3470, -10595,  13328,   2852,  -3894,  14713,   9695,   8564,    670, -12939,   1858, -18243,   -854,   2653,   4770, -14554,   8721,  12152,  -5000,  -1561, -14739,   4768,  -9931,   9257,  -2849,  -1122,  -6504,  -2019,   4803,  -1815,   4931,   8895,  -6822, -11233,  -9905,   9223,   2311,   1428,  -2078, -20484,   1042,  -2663, -15125,  12252,  -4167,   7595, -11098,  11166,  11534,  -7695,  -2307,  -9525,  11109,   5023,   1572,   2417,   2817,  -2735,  -9323,  -5674, -12383,   -986,  -3723,  -6881,  10945, -19144,  -1962,  -2583,   7801,  -3409,  -8345,   2767,  11853,  -5090,  -8136,   3116,   3476,   7021,   1201,  -4871,   8327,  12507, -16210,   5608,   5709,  23567,   7589,   3654,   7338,  -6403,    855,   1467, -10261,   3779,  -9954,  -7068,    997,   3760,   6003,   7434,   2478,  -3367, -14472,   4296,   4471,  -9001,  -4106,   -879,  -6166,  13556,  -9020,  -5432,    968, -14351,  13035,   3479,  13034,   -576, -12476,  -6951,  -2192,  -4674,  12056,  -3425,  10208,   3731,   1327,   4810,  11634,  13259, -14768,   9332,  11964,   9091,   1489,    748,  -5635,    157,  -1126,  12898,   4695,   3505,  -5583,   5499,   3191, -12329,   5528,  -8821, -10568,   2781,  -5963,  -4583,  -4026,  -7817,    146,   -498,  -7868,  19479,  -7904,  11775,   7628, -18549,  -1559,   1668, -10354,    626,   5715,    372,  14011, -10213,  -1944,  -7396,  -5546, -10305,   8872,   3275,   9259,  -6187,   8541, -10681,   7729,  -9838,  -3736, -10086,   9925,  12752,   7424,  -1517,  -1821,   6499,  -6391,   9621,  15523,  15241,  -5182,  12827,  -3997,  -2066,   7137,   6616,   1972,  -4096,   8282,  -9532,   7155,   2389,  -5253,   4769,  -9516,  -6834,    846,  -7832, -10001,   -708,   5981,  -5521,  -7383,   6996, -11048,  -3705,   2040,    776,  -8441,  -3490, -10185,  -5892,   4026, -12456,  -6216,   5619,   1650,  11848,   1529,   1439,  15995,  -4236,   5680,   3977,   4264,   1031,   1981,   3732, -10495,   3195,  -4610,  -1916,  -3985,  -5073,  -1395,  -7525,   8269,  11180, -14772,  -4858,   7599,   4428,  18289,   7076,   8851,   8659,  -4977,   7738,  -4431,   5207,  12470, -13101,   9932,   1434, -12333,   3187,   5636,  11315,  -8940,  -3092, -11283,  -4923,  -1916,   9688,   3943,  -2024,  -9772,   8070,   4367,  -3137, -13271,   1060,  10408,   5886,  -1545,   3439,   2396,   5194,   2173,  -6070,  -8872, -10359,
          3074,   2433,   7586,  -7187,   2657,  -2000, -11788, -12796,  13691,    713,   5735, -12766,  11273,  15959, -10873, -10139,  12818,   2991,  -1158,  -3673,   3918,  -2299,   8955,   7157,  -9563, -13048,   6018,  -7205,   1941,    590,  -6688,   4423,  -7406,   7094,  11794,   5944,  10415,   8792, -13308,  -1814,   5405,  14380, -15585,  -3780,   5095,  16343,  -5801,   6931,  18082,  -8717,  20762,  -8913,   4268,   9776,  -6321,   3172,   9049,  -5931,   8062,   7753,  -1035,    284,   -451,  -6002,  15031,  10298,  14502,  10133,  -4465,  -1714,    840,   2757,  -8809, -12092,   7950,    336,  -3871, -10497,   -883,   5663,  12513,  -8482,   7601, -17822,  -3899,  10896,   1054,   -351,    763,  -5390, -10355,  10198,  -5769,   2716,   6920, -13796,  -4413,   6392,  10486,    165,  -5226,  -1558,      9,   8308,  17318,   3941,  -2499,   8355,   2618,   6006,  10639,  13042,  -4847,  -9274,  10590,  -7309,   -270,   9187,  -6124,  -6446,  12230, -14463,   6985, -20199, -12720,  11043, -11743,  -5721,  13943,  -3435,  -5709,   5125, -11147,  -7358,  -1395,  -5906,  -5992,   8008,  10945,   8140,  -5572,  -1486,  -7369,  -6339,  -5705,   6070, -10823,  -1303,   1373,  -3552,   5694,  -3558,  -9142,  -1336,   9526,   1761,  -9034,  -2920, -11829,  13219,  10192,  -2726,   4639,  -3404,   5609,   7864,  -2993,    748,   7939,  -7594,  11031,  -8289,   4761,   1538,  10020,   1640,   4946,  10435, -16086,  15441, -12573,   4324,   -350,   9889,   4582,  -4629,   -201,  -9155,  -8060,   -716, -14177,  -2333,   1411,  -2097,  11079, -17079,   6704,  -4924,   6937,   8560,   1200,   8848, -11130, -11217,  -7513,   9963,  -5752,  11440,  -3195,    411,   5201,  -8985,  -1338,   2191, -12343,  -4030,  16381,  -7517,  -4220,  -8056,  11018,  18440,   5401,  10135,   1628,    202,  -5026,  -4277,   3789,   9608,   5686,  12334,  -8817,   7192,  -6055,   2981,   1106,   5934,   1834,   4629,  17132,   2445,    289, -13343,  -6181,  17673,  -7404,   5731,   8690,   8226,  -8569,   3915,  -9550,   7415,   2149,   9621,  17360,  -5138,  -6587,  10359,   1358,  17786, -13918,  -5200,  -9013,   3061,  -5589,   1126,  -8373,   -262,   3251,   2376,   1408,  -6995,  -4717,  -7504,   6218,   8668,    701, -12402,  -3128,   3524,  24091,  -4229,  -3972,  -2598,  -1526, -10649,   4848,   5478,  -3569,   6076, -12425, -12226,  -4761,  -4573,   1160,  17804,  -6262,  -2993,   2895,   5281,  -7635,   1772,    215,  -7352,  20977,  -2529,  -8585,   6440,   2576,  -4824,  -6511,  -2577,   4799,  -5222,    690,   3609,   6279,   9273,   1330, -10303,   4267,  -7742,  -3821,  -4099,   7611,  -3929,   3335, -11584,   6990,  -8750,  -9511, -12062,  -8894,  -1107,   5481,    -35,  -3007, -15838, -10411,  -4188,   5125,  -4756,  -7287,  -5134, -12511,  12577,  -3391,  12236, -12079, -11645,    551,  -3940,  -6045,   6034,  -5507,  -3875,   8609, -13847,  -3301,   3295,  11029,   1163,   1726,   3253,  -4063,   8025,  10380, -11247,   9647, -12187,  12175,   7047,  -7899,  -8018,  -9528, -10899,  19350,  -5322,  -3963, -10431,   -518,   -812,  19980,  -7744,  -2964,   1867,  13424,   1302,   3341,   5470,   -230,   7649,   2688,   6306,   4952,   9310,   -603,   1996, -12376,   -685,   5718,   4419,  -6185, -15539,  -5375,  -7677,   6392,  14048,  -6281,   9483,   5667, -12131,  -1629,  -3180,  11638, -17825,  10439,   4592,   -429,     83,  -8728,   8099,  -9278,  -8005,   2591,   1037,   8566,    -47,   1529,   9433,   6377,  22256, -19272,   8159,  -6335,   2123,  -4395,   5802,   8567,    -69,  -2955,  -5103,   6983,   7184,  -6516,    420,   2596, -14049,  22082,  -5672,    469,   7041,  -5057,   6170,   8871,  -6354, -10409,  -6381,   9845,  13033,  -9799,  -4545,  -6104,   9380,  -8761,  -2134, -13410, -10393, -13263,  -7875,   1681,  -4833, -10364,  -4679,   2806,  11394,   5697,   9290,   2447, -14240,   1729,  -2403,  11338,  -4355,   1572,    391, -12761,  13819,   -776, -11518,     27,    719,   5632,   9129,   6860,   5002,  -4607,   5599,   -166,  -6605,   3997,  -2031,   6711,  -8216, -13062,  10323,   1869,   -217, -12089, -14518,
          8012, -11040,   5033, -11530,   5236,  -1273, -14308,  -8210,   1473, -13262,    641,  -9864,  10768,  -9448,  -7928,   4895,   3473,   1395,  -2539,   2611,    144,   1805,  -8351,   4144,   2767,  -3203,  21241,  -7339,  -4328,   8379,  -9531,  -8706,   6000,  -7517,   5990, -12545,   3628,   6259,  -7456,   6293,  -3252,   4904, -12114,  -6712,  -3152,  13821,   7967,   5997,   4585, -13794,   5629,  -4442,  -8707,   5205, -12575,  -4789,   7726,   6154,  14089,  -1787,  -9126,  10589,   8700, -14221,  -2345,   7858,  -3373,  -9470,  -7511, -13176,   1393,  -1135,  22838,  -5376,  11943,  15274,    358,   4263, -13392,   2508, -12021,  -9662,  -3068, -11435,   6595,  -3109,   1777,   -217,  10684,   7196,    888,   9430, -12921,   1018,  10399,   1385, -11195,   2892, -11879,    427, -10941,   4765,  -5191, -14954,  -2261, -12805,  18044,  -2169,   2955,   4007,  -1890,  14636,  -4943,  -3224,    747,  -6554,   8803,   4170,   8911,  -7734,   7346, -11504,  11446,  -9726, -11106,   4729,  -8037,  -9452,  14717,  -7059,   8602,  11699,   1563,  19819,   2950,  -8003,  -6032,   9260,  -6633,  -6383, -13041,  -5751,    -84,   5329,  -3169,  -3269,  -2939,  -4067,   1417,   2426,  -5423,   9843,  -5919,  -3679,   8359,  -7361, -14588,    137,   1749,  -2667,   1402, -19906,  16852,    576,  -7307,   7303,   -844,  -2017,  -2655,  -5579,  20647, -13088,  -5886,   3334,   3479,  10339,  -7110,  22741, -10934,   8897, -12563,   3218,   8804,  -2470, -13561,   -518,  15058,   5482,  -9050,   3237, -11684,  -7654,   4062,  -2029,  16383, -21350,  14278,  -1686,   7271,   5960, -14873,   1426,   8738,   9513,   9458,   5904,   3165,   2741,   3877,   8891,   7570,  -3451,  -5211,   7379,  10604,   4397,  -6793,   2661,  -7549,  -8806,  -8835,  -9157,   1458,  -6488,   4981,  -8193,  24301, -13443,  12059,   3145, -11133,  -4095,  -4280,  11906, -15314,  -9993,    510,    330,   7040, -12475,  10926, -13664,  -2871,  -4834,  -1236,   -435,   6496,  -8363, -15277,  -6222,  -4315,  -3095,  -2447,  11785,   7295,   -571,  -6542,   9664,  -9973,  -8946, -10234,  -3696,    901,   8261,  15328,  -9204,   2322,  -5843,  -9305,  18002, -10147,   7190,   9066,  -8522,   5085,  -3359,   2829,  -9399,  11416,    352,   2694,  -6013,   1929, -12240,   7073,  -9127, -10008,  12126,   7555,   1536,   3394,   5917,  -2290,  -7123,  -1707,  -3525,   3150,  -1331,  -4688,  -4635,  -2781,    -74,   2289,   7151,  12567, -18295,  16998,  -3502,   3229,  -8676,   5595,   9738,  -4952,  -9679,    465,  -2258,   5893,    -74,  -2748,  -9044,   1266, -12387,  12526,  -6217,   2547,   3017, -12201,   8322,  -5205,    579,  10140,   6330,   4474,  -9214,  11614,  -3825,  -9759, -14421,   5814,   -182,  -8808,   4368, -11545,   1147, -10076,  -2124, -18099,  -9576,  -5256,  -2669,   9987,  -5961,   7954,  11543,   3569,   5528,   6834,  -6662,  -1038, -12125,   6897,  -5661,   4901, -16890,  10490,  -5904,   3134,   7070,  -2851,  -7534,  14654,   2596,   2786, -14648,  -5622,   8705,  12672, -17981,   9111,  -1068,  11565,     44,   1328,   5516,  -3446,   2623,   8705, -11802,  -6303,   9189,   2755,   -971,   -374,   1790, -13447,   7968,   3796,   7673, -10640,   9941,   4541,  -5717,   8485,  -4679,  -1709,  12852,  -7316,   5591,   2897,   1639,  -5496,  11653,  -2573,   8005,  -1563,  -7948,  -6102,   7647,  13115,  -3824,   8122,  -1717,   3420,  -1667,  -8470,    539,  15165, -12701,   8232,  -3657, -10901,  -7819, -18782,   3627, -11053,   8179,   5368,   3602,   3064,  -8191,    358, -12472,  -4449,   5189,   2889,  -6715,   2820,   3546,  -5084,  -3936,  13972, -10087,  -1129,  -5469,   5183,   4123,  -1383,  -9743,  -3947,   1104,   -641,   3802,  -7964,  -7687,   2314,  11104,   1530,   4589, -13851,  -8048,  -4095,  -8967,   5754,  -4952,  -5829, -11870,  -6684,  -5790,   1398,  11985,   4589, -10282,   6993,  -6407,  -9149,  10427,   5248,  -8794,  -7519,  14688,  -8723,   4514,   1164,  -1954,  -5747,   2207,    486,  -4048,  -4636,   7227,    415,  -4104,   3645,  -8196,  11413,  12521, -12771,   3321,  -5963,   7267,  -6454,   2433,
